FANN_FLO_2.1
num_layers=3
learning_rate=0.100000
connection_rate=1.000000
network_type=0
learning_momentum=0.000000
training_algorithm=2
train_error_function=1
train_stop_function=0
cascade_output_change_fraction=0.010000
quickprop_decay=-0.000100
quickprop_mu=1.750000
rprop_increase_factor=1.200000
rprop_decrease_factor=0.500000
rprop_delta_min=0.000000
rprop_delta_max=50.000000
rprop_delta_zero=0.100000
cascade_output_stagnation_epochs=12
cascade_candidate_change_fraction=0.010000
cascade_candidate_stagnation_epochs=12
cascade_max_out_epochs=150
cascade_min_out_epochs=50
cascade_max_cand_epochs=150
cascade_min_cand_epochs=50
cascade_num_candidate_groups=2
bit_fail_limit=3.49999999999999977796e-01
cascade_candidate_limit=1.00000000000000000000e+03
cascade_weight_multiplier=4.00000000000000022204e-01
cascade_activation_functions_count=10
cascade_activation_functions=3 5 7 8 10 11 14 15 16 17 
cascade_activation_steepnesses_count=4
cascade_activation_steepnesses=2.50000000000000000000e-01 5.00000000000000000000e-01 7.50000000000000000000e-01 1.00000000000000000000e+00 
layer_sizes=25 49 26 
scale_included=0
neurons (num_inputs, activation_function, activation_steepness)=(0, 0, 0.00000000000000000000e+00) (0, 0, 0.00000000000000000000e+00) (0, 0, 0.00000000000000000000e+00) (0, 0, 0.00000000000000000000e+00) (0, 0, 0.00000000000000000000e+00) (0, 0, 0.00000000000000000000e+00) (0, 0, 0.00000000000000000000e+00) (0, 0, 0.00000000000000000000e+00) (0, 0, 0.00000000000000000000e+00) (0, 0, 0.00000000000000000000e+00) (0, 0, 0.00000000000000000000e+00) (0, 0, 0.00000000000000000000e+00) (0, 0, 0.00000000000000000000e+00) (0, 0, 0.00000000000000000000e+00) (0, 0, 0.00000000000000000000e+00) (0, 0, 0.00000000000000000000e+00) (0, 0, 0.00000000000000000000e+00) (0, 0, 0.00000000000000000000e+00) (0, 0, 0.00000000000000000000e+00) (0, 0, 0.00000000000000000000e+00) (0, 0, 0.00000000000000000000e+00) (0, 0, 0.00000000000000000000e+00) (0, 0, 0.00000000000000000000e+00) (0, 0, 0.00000000000000000000e+00) (0, 0, 0.00000000000000000000e+00) (25, 4, 5.00000000000000000000e-01) (25, 4, 5.00000000000000000000e-01) (25, 4, 5.00000000000000000000e-01) (25, 4, 5.00000000000000000000e-01) (25, 4, 5.00000000000000000000e-01) (25, 4, 5.00000000000000000000e-01) (25, 4, 5.00000000000000000000e-01) (25, 4, 5.00000000000000000000e-01) (25, 4, 5.00000000000000000000e-01) (25, 4, 5.00000000000000000000e-01) (25, 4, 5.00000000000000000000e-01) (25, 4, 5.00000000000000000000e-01) (25, 4, 5.00000000000000000000e-01) (25, 4, 5.00000000000000000000e-01) (25, 4, 5.00000000000000000000e-01) (25, 4, 5.00000000000000000000e-01) (25, 4, 5.00000000000000000000e-01) (25, 4, 5.00000000000000000000e-01) (25, 4, 5.00000000000000000000e-01) (25, 4, 5.00000000000000000000e-01) (25, 4, 5.00000000000000000000e-01) (25, 4, 5.00000000000000000000e-01) (25, 4, 5.00000000000000000000e-01) (25, 4, 5.00000000000000000000e-01) (25, 4, 5.00000000000000000000e-01) (25, 4, 5.00000000000000000000e-01) (25, 4, 5.00000000000000000000e-01) (25, 4, 5.00000000000000000000e-01) (25, 4, 5.00000000000000000000e-01) (25, 4, 5.00000000000000000000e-01) (25, 4, 5.00000000000000000000e-01) (25, 4, 5.00000000000000000000e-01) (25, 4, 5.00000000000000000000e-01) (25, 4, 5.00000000000000000000e-01) (25, 4, 5.00000000000000000000e-01) (25, 4, 5.00000000000000000000e-01) (25, 4, 5.00000000000000000000e-01) (25, 4, 5.00000000000000000000e-01) (25, 4, 5.00000000000000000000e-01) (25, 4, 5.00000000000000000000e-01) (25, 4, 5.00000000000000000000e-01) (25, 4, 5.00000000000000000000e-01) (25, 4, 5.00000000000000000000e-01) (25, 4, 5.00000000000000000000e-01) (25, 4, 5.00000000000000000000e-01) (25, 4, 5.00000000000000000000e-01) (25, 4, 5.00000000000000000000e-01) (25, 4, 5.00000000000000000000e-01) (0, 4, 0.00000000000000000000e+00) (49, 4, 5.00000000000000000000e-01) (49, 4, 5.00000000000000000000e-01) (49, 4, 5.00000000000000000000e-01) (49, 4, 5.00000000000000000000e-01) (49, 4, 5.00000000000000000000e-01) (49, 4, 5.00000000000000000000e-01) (49, 4, 5.00000000000000000000e-01) (49, 4, 5.00000000000000000000e-01) (49, 4, 5.00000000000000000000e-01) (49, 4, 5.00000000000000000000e-01) (49, 4, 5.00000000000000000000e-01) (49, 4, 5.00000000000000000000e-01) (49, 4, 5.00000000000000000000e-01) (49, 4, 5.00000000000000000000e-01) (49, 4, 5.00000000000000000000e-01) (49, 4, 5.00000000000000000000e-01) (49, 4, 5.00000000000000000000e-01) (49, 4, 5.00000000000000000000e-01) (49, 4, 5.00000000000000000000e-01) (49, 4, 5.00000000000000000000e-01) (49, 4, 5.00000000000000000000e-01) (49, 4, 5.00000000000000000000e-01) (49, 4, 5.00000000000000000000e-01) (49, 4, 5.00000000000000000000e-01) (49, 4, 5.00000000000000000000e-01) (0, 4, 0.00000000000000000000e+00) 
connections (connected_to_neuron, weight)=(0, 7.05970075910850480838e-01) (1, 3.85626579234553401587e-01) (2, 4.59636206338358721535e-01) (3, 5.38493894944205186981e-01) (4, -3.67688511660383521296e-01) (5, 1.10663057918367435661e+00) (6, -4.85252738303695974054e+00) (7, -3.73967113936222672610e-01) (8, -3.89622588804052649714e-01) (9, 4.44309295523934864036e+01) (10, 4.46598078027449574279e+01) (11, 1.20359876307612190249e-01) (12, -4.59351276209638892389e-01) (13, 9.71212566681330158325e-01) (14, 2.23063893540333568755e-01) (15, -2.59291757178082282742e-01) (16, -4.25824065854833899714e-01) (17, -1.39997565772629162240e+00) (18, 3.04689710074732611478e-01) (19, -2.99836711552582069196e-01) (20, 2.36577182613159786584e+00) (21, -2.54590331545082093623e-01) (22, -3.31127142977180100036e-01) (23, 2.54533343696217884133e-01) (24, -1.64587457045010460144e-01) (0, 4.10229181480710547447e+00) (1, 1.01252422827646282322e+00) (2, 2.20251882270470122904e+00) (3, 3.91233181117556783057e-01) (4, 2.23614893939502437092e+01) (5, 6.26267605672978233677e-01) (6, 2.00083487883679689290e+00) (7, 2.03266877684836488882e+00) (8, 4.22437865587578400550e+01) (9, 5.57892458237284949440e-01) (10, 1.82946390406118464256e+00) (11, 9.29940917049050241872e+00) (12, 4.21802762078748330055e+01) (13, 4.12176739759385135642e+00) (14, 5.43150450108832338891e-01) (15, 5.12642077668239863897e+01) (16, 2.24096533816464145161e+01) (17, 5.30142951766669034974e-01) (18, 5.59388133981422952523e-01) (19, 4.21433997529254540382e+01) (20, 4.22954054328308686195e+01) (21, 7.31272370124943504877e-01) (22, 4.20367453176729855002e-01) (23, 1.99281438269551780529e+00) (24, 4.37190860167688821747e+00) (0, 4.22009541171298607765e+01) (1, 2.74918855530936445675e+00) (2, 2.79355745566804136715e+00) (3, 4.39996022092765404210e+00) (4, 1.63433853475310009173e+01) (5, 8.62875772793756645740e+00) (6, 1.78005367246378085611e+01) (7, 1.31689519216498140963e+01) (8, 1.63553784986890953235e+01) (9, 2.15378274777489830960e-01) (10, 4.95093171334724591048e+00) (11, 4.21178920495019539771e+01) (12, 1.63200195481933754138e+01) (13, 1.23154616349844005185e+02) (14, 1.22871411350724790701e+00) (15, 4.22811190190420731483e+01) (16, 1.63034940039672058276e+01) (17, -6.11446618879000869384e-01) (18, 9.22126348854607535976e-01) (19, 1.31797919352730517062e+01) (20, 2.23804252829559047200e+01) (21, 6.94889994624734996798e-01) (22, 7.10177788642207041825e-01) (23, 7.45283557229113924336e+00) (24, 5.13285430132979936246e+00) (0, 7.68272943239844749996e+01) (1, 1.45669238490753594206e+00) (2, 2.07021327320580583731e+00) (3, -1.78598583498913499046e-01) (4, 2.24762150880105693318e+01) (5, 4.81380238923665715323e-01) (6, 1.15157182186092588161e+00) (7, 1.39857864601307335661e+00) (8, 4.21955529006825074134e+01) (9, 3.49750082767843935017e+01) (10, 1.68246918073155349305e+00) (11, 1.77532798116017005441e+01) (12, 4.21328037383661850868e+01) (13, 6.84200729682290997857e+00) (14, 3.10265022248331023835e-01) (15, 4.21443059595928772865e+01) (16, 2.24931497883207995869e+01) (17, 2.89824830143568967777e-01) (18, 6.14958873605513489657e-01) (19, 4.22347706409798249183e+01) (20, 1.01095896967123053400e+02) (21, 3.64163399358144346252e-01) (22, 5.61855761411757859136e-01) (23, 4.21217091011510476051e+01) (24, 2.00391235206370410538e+00) (0, -2.85922534583101017880e-01) (1, -2.69675799685437922459e-01) (2, -5.17409021348444131405e-01) (3, 1.49310101706501607843e+00) (4, -4.10034266101528876991e-01) (5, 8.75356735315626011129e+00) (6, 3.83984924149337880639e-01) (7, 2.17828992569528506751e-01) (8, -2.97564540547306854990e-01) (9, -4.51377180342510442301e+00) (10, 1.70005744126720181875e+00) (11, 2.01767138885418612082e-01) (12, -1.85787980002339092600e-01) (13, 2.20979083546707251173e+01) (14, 7.38114253400661612936e-01) (15, -4.88635965406457928317e-01) (16, -2.28066806239064057138e-01) (17, 2.25465325148281170442e+00) (18, 6.09750786900918106959e-01) (19, -4.06298693984310066440e-01) (20, -1.08818929369829314746e-01) (21, -3.57924249956627971159e-01) (22, -2.11505084844539392730e-01) (23, 8.91348779453483286428e-02) (24, 1.14468280852166245931e-01) (0, 1.77470837641776242322e+01) (1, 5.51545137730497847528e-01) (2, 5.15490735140699762873e-01) (3, 4.67615805103477888416e-01) (4, 2.24388632636673648335e+01) (5, 7.17508775928581243875e+00) (6, 2.14897383407227859919e+00) (7, 2.24761427428729732014e+01) (8, 4.21835741030679329810e+01) (9, 1.40730957440009185611e-01) (10, 5.18874605244056930076e-01) (11, 2.16830498113513669978e+01) (12, 4.21566802340255364356e+01) (13, 5.14416982619693072820e+01) (14, 7.58934304101092416239e-01) (15, 5.12725773988892825628e+01) (16, 2.25089899759895999409e+01) (17, 9.28927468209836320057e+01) (18, 7.15640726111322122982e-01) (19, 9.87845362236009805201e+00) (20, 1.78440419767320790356e+01) (21, 1.24963752495733126935e+00) (22, 7.59055944143470551211e-01) (23, 4.21731756630049332557e+01) (24, 4.38831268653816675140e+00) (0, 2.24157680545158584096e+01) (1, 6.56946084901713023285e-01) (2, 6.84748359128293904163e-01) (3, 4.28227701969410567973e-01) (4, 2.24982743870623309590e+01) (5, 3.71802873394329214118e-01) (6, 2.25987888929864544352e+00) (7, 1.78824875349978498207e+01) (8, 4.21292467194305046974e+01) (9, -8.21680906412366740543e-02) (10, 1.03272592514135364006e+00) (11, 5.13875339119365008855e+01) (12, 4.21456514189646824775e+01) (13, 2.11916925977897729894e+00) (14, 6.40071235580069619608e-01) (15, 5.14072202681233676458e+01) (16, 2.25211709302075107075e+01) (17, 4.46267563756912508666e+01) (18, 7.70733787990419916270e-01) (19, 5.14043539403607638860e+01) (20, 2.24456669625051219441e+01) (21, 9.71358714511493359645e-01) (22, 1.00784174891321076650e+00) (23, 4.21672005618618115363e+01) (24, 1.84134173266686218540e+00) (0, 1.19032884163474381722e+01) (1, 7.99319872616466309267e-01) (2, 1.25761015838222922625e+00) (3, 2.75268254600652517716e-01) (4, 9.50719101325882931519e+00) (5, 7.50154124628389862295e+00) (6, 1.01153476141760847895e+02) (7, 2.69383892222805609862e+00) (8, 1.77936047566044948098e+01) (9, 4.95195966671544904325e-03) (10, 5.20380579142386956448e+00) (11, 7.59325842070556511487e+00) (12, 1.78974594947803637979e+01) (13, 2.62804235852427723330e+01) (14, 9.87774934029726714435e-01) (15, 1.77712329839277884957e+01) (16, 9.68023193226470013428e+00) (17, 7.35348067168742858257e+01) (18, 7.02098418053604400590e-01) (19, 1.77112049859870097634e+01) (20, 1.01089922778676054804e+02) (21, 1.65253153546257830486e-01) (22, 5.53664039688278375451e-01) (23, 6.47858434314195186232e+00) (24, 1.33782359434061470793e+00) (0, 1.44389208602696914596e+01) (1, 8.02962319830709425617e-01) (2, 7.97267575118773885734e-01) (3, -1.97144623928244000499e-01) (4, 2.25180913221247394063e+01) (5, 1.74732047661337097644e+00) (6, 3.52508376383695942735e+00) (7, 9.96026814701648355310e+00) (8, 4.21995532366142853675e+01) (9, 1.16591001311734276946e+00) (10, 3.68841197374591089897e-01) (11, 4.22770379188166245399e+01) (12, 4.22846180203066452918e+01) (13, 3.62004937849295060914e+00) (14, 4.42363287822582762487e+00) (15, 4.21410783606277092872e+01) (16, 2.23820777919299800374e+01) (17, 3.07661993486367464357e+01) (18, 2.17950908847546154234e+00) (19, 1.57330742739671602948e+01) (20, 2.23926580187089641072e+01) (21, 1.66746059762439680085e+00) (22, 8.47350077738390439208e-01) (23, 4.21837572606907471595e+01) (24, 4.48774931982702707245e+00) (0, 7.23756759203822208626e-01) (1, 2.85380885877645096294e-01) (2, 1.94004283227956264568e-01) (3, 3.43950445335213350617e-01) (4, 2.29898327625009446518e-01) (5, 2.04338306246063190486e+01) (6, 3.44381563056753048357e-01) (7, -3.22051845075619513903e-01) (8, 1.77178427312219781697e+01) (9, -2.34731885183675137441e+00) (10, 2.89943303032758718796e-02) (11, 1.78198683518613023580e+01) (12, 1.77214713949406785787e+01) (13, 3.33480129391922064386e-02) (14, -2.74924884206194486413e-01) (15, 1.77734928015316171468e+01) (16, -3.41435903595227296936e-01) (17, 1.69276447672434642300e+01) (18, 3.10736699657713166811e-01) (19, 2.24535184017397360101e-01) (20, 1.27153570689608597100e+00) (21, -2.43062572092323891937e+00) (22, 1.92155263743895465822e-01) (23, 1.08171577125450169010e-01) (24, 3.29219672262875850954e-01) (0, 3.01166279127527225512e+00) (1, -4.12380507924712869094e-01) (2, -4.24357889928973885940e-01) (3, 2.03195601666009084685e-01) (4, 1.19940958877657849468e-01) (5, -6.45397367620725748161e-01) (6, -1.05909647844064758182e+00) (7, -6.87850881663290225632e-01) (8, 4.86326613898788673307e-01) (9, 9.40962782478629855554e-02) (10, 4.76599275649276454825e-01) (11, -3.62196866945120210524e-01) (12, 5.90371636177812963986e-01) (13, -2.85233030979778101610e+00) (14, -1.59348157819997715556e+00) (15, -1.90779484799470294698e-01) (16, 1.08499960443548849887e-02) (17, 1.58894497776651544285e+01) (18, -9.54231369910326643335e-02) (19, 4.60171215935730182345e-02) (20, 5.38769496606827491547e-01) (21, -1.08195255174475341020e-01) (22, -1.81571029657453392181e-01) (23, 4.76500000018025116066e-01) (24, -6.31830788659399344986e-02) (0, -9.70918026740863471247e-02) (1, -1.23580878441683572611e+00) (2, -2.72041737792236837379e-01) (3, -1.60049290621905049292e+00) (4, -3.71289236335946709611e-02) (5, 6.52324550921754342525e-01) (6, 4.21132600011931046424e+01) (7, 1.54531533979500457221e+00) (8, -1.02222723237773427396e-01) (9, -1.42471349633071375784e+00) (10, 7.48216641646640368002e-01) (11, 5.13197113736202510381e+01) (12, -5.95488821189608663609e-02) (13, 5.37878456641154301110e-01) (14, 2.39718196226208801747e+00) (15, 5.12888447544207366491e+01) (16, -6.61498030512525647673e-02) (17, 3.87413470811297386831e+01) (18, 2.61645600495184105228e+01) (19, 8.89632270294857008253e+00) (20, -3.49881921882941870905e-02) (21, 1.81330280064218918312e-01) (22, 7.40445612348043180617e-01) (23, 6.24641284769333560156e-01) (24, -4.52144786811559895590e-01) (0, 2.85537922834791339788e-02) (1, -4.24268436181127694962e-01) (2, -4.58612382906257776138e-01) (3, 2.94440188390568113874e+00) (4, -6.18826220722697786791e-02) (5, -2.38118283656509976964e+00) (6, 3.23848569351472437283e-01) (7, -7.95750532625760786942e-02) (8, 2.74165743770660164103e-01) (9, -2.25326371321349006038e+00) (10, 2.07730601152360128125e+00) (11, -1.77877205773805148470e-02) (12, 1.81831219973625030084e-01) (13, -3.59654154369247691658e-01) (14, -3.26163877258383583246e-01) (15, 8.16833441855445374635e-01) (16, -6.17203739854810529142e-02) (17, 3.56913453080273725959e+01) (18, 1.18999757250768500860e+00) (19, 6.04403207426370991939e-01) (20, -1.75718105229814812451e-02) (21, 2.82218836644039516859e-01) (22, -7.58957441353075301649e-02) (23, -6.59227237430619478209e-02) (24, 1.45630823517984647752e-01) (0, 2.55124165583823003800e-01) (1, 1.88370740860443208753e+00) (2, 6.04432667684456470525e-01) (3, 6.13994660849271900460e-01) (4, 5.35128139692913951109e-01) (5, 1.00348576083929885705e+00) (6, 2.05848170781076610092e-02) (7, 1.05977408409702755776e+00) (8, 3.15475313095689713361e-01) (9, 1.83077298551540468274e+00) (10, 2.12285625920143716794e-01) (11, 1.64708726820040163297e+00) (12, 3.62138582496286276502e-01) (13, 1.65126125496976916551e-01) (14, -6.27203471251926325536e-01) (15, -3.52938975005718003075e+00) (16, 3.77039989559293631238e-01) (17, -9.67524848405202475554e-01) (18, 5.65976988433458783057e-01) (19, -6.97413169418728351445e+00) (20, 5.27561219514070534053e-02) (21, -3.62158062960997213509e+01) (22, -1.76509595078692971271e+00) (23, -1.51902123848940675543e+01) (24, 5.10059396815201404607e-01) (0, 1.47300643426957783566e-01) (1, -1.97107557673712463497e-01) (2, -5.45091982961861276635e+00) (3, 1.29230900795363079503e+00) (4, 3.41736632121878769475e-01) (5, 3.76518492529123394164e-01) (6, 3.47629508308654111559e+00) (7, 3.13018987579412100164e-01) (8, 1.67941252423602194188e-01) (9, -2.79124940672909316319e+00) (10, -5.62500169386883519529e-01) (11, -2.90223894361311907097e-01) (12, 3.47136455310660507756e-01) (13, -4.93518014868262133721e-01) (14, -1.39955849135207843759e+00) (15, 6.66189246466703521854e-01) (16, 8.90714845990300263523e-02) (17, 8.11335087464158419834e+01) (18, -4.97129586201905337983e-01) (19, -9.95227069332939862090e-02) (20, -8.20304139247010621894e-04) (21, 6.57404669918972978104e-02) (22, -8.14339226237548521881e-03) (23, -2.08291888867364577420e-01) (24, 1.08741508377376228101e-01) (0, 4.22886619272337540565e+01) (1, 2.11356422499313856278e+00) (2, 4.46020024672693704559e+00) (3, 4.16966852913183860796e-01) (4, 2.24778577100641925313e+01) (5, 6.49016856941816100424e-01) (6, 1.02626527014535962046e+00) (7, 7.10249674013046305987e+00) (8, 4.22608976515637024818e+01) (9, 7.44680138441077832390e-01) (10, 1.59299947222926085999e+00) (11, 1.77817312512815632886e+01) (12, 4.21460288728283032356e+01) (13, 1.67873706709927574821e+01) (14, 3.95759333369542498637e-01) (15, 1.01170816950867674677e+02) (16, 2.23910842176683146931e+01) (17, 1.82706591870690659984e-01) (18, 3.59469287208659116217e-01) (19, 4.21957631188140496192e+01) (20, 1.01095489956806204646e+02) (21, 8.24037258000152150750e-01) (22, 5.48936435034165670643e-01) (23, 1.01152242534230254023e+02) (24, 1.72016613803900519919e+00) (0, -7.40722775623463003392e-01) (1, -2.72330561370555529477e-02) (2, -4.05320960796713494756e-02) (3, 2.39331428708322552223e-01) (4, -3.92676516810171349903e-01) (5, 1.05012956599443718630e+01) (6, 1.96895019663809955901e+00) (7, 1.63708252955968233677e-02) (8, -2.92627748575114032814e-01) (9, 4.54858839877564646859e-02) (10, -3.81487118011284209729e-01) (11, -5.26154341052477575458e-02) (12, -3.02087575670384189674e-01) (13, -1.78801523179255128504e+00) (14, 3.28367497720228618263e+00) (15, 2.34109814179449093885e-01) (16, -4.40758950451128228565e-01) (17, -3.18134538085849492006e+01) (18, 1.99983787986225625133e+00) (19, 2.47812047749058940449e-02) (20, -4.26117531460501186569e-01) (21, -7.44840653200317809324e-02) (22, -8.06682531163701449506e-02) (23, 8.00267761317722925440e-01) (24, -1.41686418371434807995e-01) (0, -2.55820282559476586126e-01) (1, -1.46662284177487667325e-01) (2, -3.03080771309880814268e-01) (3, 2.25740183225803331402e-01) (4, -8.87827357624496188437e-02) (5, 2.26957813438290134656e+00) (6, 9.14525980724492448815e+00) (7, -4.37313142648878272478e-01) (8, 1.33780680806732332755e-01) (9, -3.03102213487031979522e-01) (10, 1.54500411409270537177e+01) (11, -4.57299337554157303565e-01) (12, -6.68496990075093805439e-03) (13, 1.14660875793580446791e-01) (14, -4.67553762426605956648e-01) (15, -2.44570454869940806519e-01) (16, -9.35380762790168490683e-02) (17, 4.38496938017917070596e+00) (18, 1.82225307270142451443e+01) (19, -2.79373409605147782209e-01) (20, -2.25545404928278736545e-01) (21, 3.64269586531503819504e-01) (22, 2.58142484767230340204e-01) (23, 2.66373958539063471207e+00) (24, -7.45195691109053204304e-02) (0, 4.22091756540046318946e+01) (1, 5.61206982705171220083e-01) (2, 1.77642478463884989637e+00) (3, 8.18883881285961123808e-01) (4, 2.25108660917885501362e+01) (5, 6.35618835482236632650e-01) (6, 1.64490273363575423282e+00) (7, 2.25055129986412723042e+01) (8, 2.23816538762457568623e+01) (9, 2.47878070060956767762e+00) (10, 4.01695420866413854810e+00) (11, 4.22379801722870453773e+01) (12, 2.23591063331968982197e+01) (13, 1.23135683888105418760e+02) (14, 9.82561317956904156645e-01) (15, 4.22242521348105057655e+01) (16, 2.25235983591683108784e+01) (17, 9.08883535250177065912e-01) (18, 1.04693370618950454265e+00) (19, 4.21643185692535027442e+01) (20, 4.22004692631469353614e+01) (21, 5.17625492681511478743e-01) (22, 4.39078057620797768124e-01) (23, 7.48321877919507372212e+00) (24, 2.74408948503002347863e+00) (0, -1.36610599530186088701e-01) (1, 2.12892542688212033086e-01) (2, -1.08349094627771067728e-02) (3, 1.22230136845129577772e+00) (4, -5.68860197009998513895e-02) (5, 1.86309489210404555237e+00) (6, -9.65482462365644944491e-01) (7, -3.08968050489605607078e-02) (8, 5.55251643640049197259e-01) (9, 2.48522993989272293625e-02) (10, -2.24928378149603673819e+01) (11, 1.08627450861772079094e+00) (12, 5.34841370415933714533e-01) (13, -1.13532967599084400057e+00) (14, -1.86095859225419024696e+00) (15, 2.01540627365583047137e+00) (16, -4.45578431579202322022e-02) (17, 2.40066274541905677609e+00) (18, 4.38716167545355084645e-01) (19, -3.90990930133823938464e-02) (20, 1.00353656604521179752e+00) (21, -5.80022503911831188717e-01) (22, -5.36853955417253780880e-01) (23, -6.54675077142820138754e-01) (24, 3.24976388122768189426e-01) (0, -4.71067948338892150684e-01) (1, -1.96872410275786169365e-01) (2, -8.03949568545310883083e-02) (3, -1.77552927221993028795e+00) (4, -2.88899386351069598078e-01) (5, 6.31519513456791869999e+00) (6, -3.98325773520457393495e-01) (7, -3.12381598114110592412e-01) (8, -2.02385218863448207438e-01) (9, 1.26622272849460379973e+01) (10, -1.30739307799955373213e+00) (11, -8.23978432748720401868e-01) (12, -3.17147361164054064631e-01) (13, -5.85197539199801441967e-01) (14, 1.75151561373953557066e+00) (15, 2.33235418663706971232e-02) (16, -1.57189708309884934589e-01) (17, 2.98740277053340053115e+00) (18, 3.79921873996154468855e+00) (19, -2.08729010225243094556e-01) (20, -3.43437862671515492519e-01) (21, 3.10793844466503849100e-02) (22, 5.12704183248250261462e-02) (23, 8.19263530821203733723e-02) (24, -1.87906605102865997825e-01) (0, 5.57341396832169699849e+00) (1, -6.44069949355102200350e-01) (2, -3.82015620597472460584e-01) (3, 1.00988642893544144918e-02) (4, 3.11502724582606471682e-01) (5, -1.14793966442963890628e+00) (6, 3.35415348629355403176e-01) (7, -5.55302421176020688520e-01) (8, 8.43688981668347603993e-01) (9, -5.73222846125005736084e-01) (10, 2.76731474667390286992e-01) (11, 3.17762792996679893642e-02) (12, 8.61341225044125802235e-01) (13, 9.94424398932614583835e-01) (14, -1.20218160023705600281e+00) (15, 1.16391361809309479280e-01) (16, -5.24302365669423106609e-02) (17, -1.68004358194745018196e-01) (18, 1.75867533503912776283e+00) (19, -2.68620404707370974418e-01) (20, 1.82335256137623491490e+00) (21, -1.10993741233973541860e+00) (22, -1.22876845454006233815e+00) (23, -1.19665589075225109461e+00) (24, -3.37772034347623262285e-01) (0, 1.11712131499726812223e+01) (1, 7.93997505714522100462e-01) (2, 5.74527709061380842392e-01) (3, -1.09068903760325097707e+00) (4, 2.23840233098871905781e+01) (5, 2.04903344643971401240e+01) (6, 7.98885498555842343826e-01) (7, 2.24597540881641108967e+01) (8, 4.21174898150072678504e+01) (9, -6.41526463625196330387e-02) (10, 4.36491952117266490685e-01) (11, 4.21199355574951752601e+01) (12, 4.21731602701054200111e+01) (13, 2.19845966637131091659e+01) (14, 6.49635606044379865232e-01) (15, 4.22297740506635292945e+01) (16, 1.08142658602424059922e+01) (17, 1.43634221827446477704e+01) (18, 1.05139586361803782921e+00) (19, 4.21468212681518181739e+01) (20, 4.21774254369245156226e+01) (21, 7.67994737287388540281e-01) (22, 6.45539760980907706411e-01) (23, 4.21063955577717408119e+01) (24, 1.29707563983884677228e+00) (0, 2.92023533700952020453e-01) (1, 3.66247293770162962723e-01) (2, 3.75844366281732900070e-01) (3, 5.66530781444181896767e-01) (4, 4.13741968005403970565e-01) (5, -1.88938660278609532606e-01) (6, 2.98086361020486134699e-01) (7, -4.31854798166165024242e-02) (8, 3.57049360304579121994e-01) (9, 3.36379293432444148593e+00) (10, 3.78084486326908164600e-01) (11, -8.81125746274446230988e-02) (12, 4.54025811880335194992e-01) (13, -1.22499342266542998736e+00) (14, -1.73835209194446338454e-01) (15, -1.87040754124338874931e+01) (16, 5.20770832329496724533e-01) (17, 2.41305272918208579824e+00) (18, 1.31692495913718099487e+00) (19, -4.97974514071474971821e-01) (20, 1.30821961602216652043e-01) (21, 4.85919614582634995514e-01) (22, 1.46681193039864576910e+00) (23, -9.08865215526960867898e-01) (24, 4.20664324789747690048e-01) (0, 3.43152183884296713146e+00) (1, 1.05811247581289369357e+00) (2, 1.78284061124101689266e+00) (3, 1.25282301190302480798e+00) (4, 1.56605249326375361996e+00) (5, 9.90652556530128625134e-01) (6, 1.01097752854595682948e+02) (7, 2.70729058993801174893e+00) (8, 9.49590653525008221436e+00) (9, 4.05256954768563826264e-01) (10, 5.56391854187058165770e-01) (11, 4.21756261887655838905e+01) (12, 9.61909589515341778565e+00) (13, 1.13216294797349936729e+00) (14, 2.02653780706862507444e+00) (15, 4.21276988911138161598e+01) (16, 1.47631349842694636898e+00) (17, 2.07564512099525588784e-01) (18, 1.62386221626679772001e+00) (19, 9.56142739550484677125e+00) (20, 3.41912538403187094005e+00) (21, 3.97171542338220495694e-01) (22, 4.97168861565282060866e-01) (23, 2.00772191587929782486e+00) (24, 1.67299364935305971969e+00) (0, 9.65586090500487514987e+00) (1, 8.50840316945365215950e-01) (2, 9.61567014277371678865e-01) (3, -1.12303386206209143694e+00) (4, 7.07801518282083552691e+00) (5, 1.26442603618811073574e+01) (6, 7.80730508054770844240e+00) (7, 2.25385206055052478291e+01) (8, 9.71497723872794338718e+00) (9, 7.41467683820180933907e+00) (10, 1.91022331353218666194e+00) (11, 5.14269448606898578191e+01) (12, 9.60211421961917110934e+00) (13, 7.62701289928943038099e-01) (14, 4.29645690764553922492e+00) (15, 5.13943470357587131048e+01) (16, 4.33539506608143554445e+00) (17, 1.33548943543113320942e+01) (18, 2.24367408462261730406e+00) (19, 4.22783556881056412635e+01) (20, 9.66425967629088589206e+00) (21, 1.11838063111482788337e+00) (22, 1.23659075649531335905e+00) (23, 2.23788736324913699605e+01) (24, 2.11981224057957584606e+00) (0, 1.07313189980761283238e+01) (1, 2.36632821029333850760e+00) (2, 3.86683355923471427928e+00) (3, 3.62209153927284671637e-02) (4, 4.22979296150313004432e+01) (5, 9.21458271891531843778e-01) (6, 7.77871374572791474122e+00) (7, 1.11640543514148067317e+01) (8, 4.22633472832546814857e+01) (9, -9.03416906850077194857e-02) (10, 2.58688904790448459536e+00) (11, 5.12671036882927211309e+01) (12, 4.22188359426961525855e+01) (13, 9.56983717390539467829e+00) (14, 4.47890623646369667732e-01) (15, 5.13719740896155627752e+01) (16, 2.23585674029000003316e+01) (17, 3.06340413150869608216e+01) (18, 7.69818908847181848643e-01) (19, 2.62417577988572361392e+01) (20, 4.23036013546095475135e+01) (21, -3.14716085766785003131e-01) (22, 3.21091191502307971017e-01) (23, -1.67057317991912412936e+00) (24, 2.78697917319401922143e+00) (0, 1.74099903729839078359e+00) (1, -2.97140663487660994235e-01) (2, -1.94339381127794985638e+00) (3, 2.35177643417941650839e+00) (4, 2.67251030244690795934e-02) (5, 4.80559559872902930522e+00) (6, 2.25629825331617617223e+00) (7, 2.96756811950609655781e-01) (8, 6.80689438245157152352e-01) (9, 3.55691052562536524917e-01) (10, -8.87070501570852765205e-01) (11, 5.22583222225615817713e-01) (12, 6.97973816654542833504e-01) (13, 1.16002178641030184725e-01) (14, 2.90249369719021210745e-01) (15, -1.49287933887817803047e-01) (16, 1.24347654048429290263e-01) (17, -1.02958462179960935634e-01) (18, 1.03457277495691779556e+00) (19, -4.70706351669972877794e-01) (20, 8.59092797669888219581e-01) (21, -3.46431448504663841437e-01) (22, 1.49689511699694598190e-02) (23, -5.48104959012238168725e+00) (24, -1.16635099861136112831e-01) (0, 4.83620802443826214301e+00) (1, -1.73850169035694390729e-01) (2, -2.74155748638412799512e-01) (3, 5.01573739786827621501e-01) (4, 2.63973458296136609391e-01) (5, 3.94686265686269188713e-01) (6, -9.39984697336426044956e+00) (7, -1.39100423585291677053e-01) (8, 1.03596022909955787217e-01) (9, 1.64857829434536240498e+00) (10, -2.23451518583857744460e+00) (11, -1.01677273210779284263e+00) (12, 2.14831470137910568452e-01) (13, -2.12064274509492145526e+00) (14, 3.03628673836051188317e+00) (15, -9.67103816538010696569e-01) (16, 1.50365187412576484238e-01) (17, 1.45170953663181490079e+00) (18, -1.04593498445238686223e+00) (19, -2.45483943822882022534e-01) (20, 1.29638046987916966124e+00) (21, -1.27457636019097847457e-01) (22, -1.46694037995220988302e-01) (23, 9.10661431687379230304e-01) (24, 1.17578066506469319785e-01) (0, 1.95346051085834560013e+00) (1, 1.96007322151308116531e+00) (2, 4.32126253804988280649e+00) (3, 1.46702780233119514652e-02) (4, 9.65791327105177899170e+00) (5, 9.28994062355648075879e-01) (6, 1.32169218341140037865e+01) (7, 4.36998355722851172800e+00) (8, 1.78590171662080905435e+01) (9, 2.81333697123808823548e+00) (10, 4.95573203831737696401e-01) (11, 1.77334710535514972207e+01) (12, 1.78420307514179370401e+01) (13, 9.37558451953113802801e+00) (14, 3.62055185471512253059e+00) (15, 1.77605936665940902230e+01) (16, 9.60614438698901196290e+00) (17, 5.40090659404872108773e-01) (18, 9.50952387727110770577e-01) (19, 9.56384982512606640626e+00) (20, 1.77752563607800624368e+01) (21, 4.10423959214900879733e-01) (22, 6.70714713621367142338e-01) (23, 1.78941501852977893350e+01) (24, 2.03437171135192018667e+00) (0, -6.19892942510257061173e-01) (1, 1.94798574990860978717e-01) (2, 2.92816756901705249616e-02) (3, 9.67231016964196332886e-01) (4, -3.10019415080631421944e+00) (5, -2.51437602137207727448e-01) (6, -3.78430037883933978460e-01) (7, 3.49400961759126327255e-01) (8, -1.19834502043079371703e+00) (9, -5.12320335233390378171e-01) (10, -2.59871684952555026538e-01) (11, 2.19855140137376148246e+00) (12, -1.08252418042968745482e+00) (13, -2.24421988043747200336e+00) (14, 1.84264665125891236030e-01) (15, 2.10386937267793028283e+00) (16, -3.07799769401634382149e+00) (17, -1.11548625418283435806e+01) (18, 1.53341824758244177351e-01) (19, 2.05845873686563418659e+00) (20, -1.61601292044338817888e+00) (21, -9.90313369138750010379e-02) (22, 1.47869410934575173933e-01) (23, -2.95075735667536243056e+00) (24, 1.53694585931175159432e-01) (0, 5.62675259451555120904e+00) (1, 2.89935934932225025662e+00) (2, 2.25469499539740283467e+01) (3, -6.43794942817511706146e-01) (4, 9.64373036141528316989e+00) (5, 4.72989894455016934849e-01) (6, 1.01035817169020674555e+02) (7, 1.15463086904954401746e+01) (8, 9.61854919458760448947e+00) (9, 5.32617467472016659080e-01) (10, 1.06964736113450031851e+00) (11, 5.13382597877313884283e+01) (12, 9.56379015411271282687e+00) (13, 2.20605585590001460616e+01) (14, 1.01419069851298875307e+01) (15, 5.14268257557084353948e+01) (16, 9.63270674313439556613e+00) (17, 1.16433303438015411935e+00) (18, 3.92153397124421019271e+01) (19, 1.13263173623900250675e+01) (20, 1.77750929255307354993e+01) (21, 6.43427282143007817083e-01) (22, 6.07001864822351855366e-01) (23, 3.07735777043285008148e+00) (24, 4.47121435061640237763e+00) (0, 3.58131910829384025874e+00) (1, 3.64980006696064618321e-01) (2, 2.93626079441387799474e-01) (3, -9.86482864859835828497e-01) (4, 9.56346401612295338168e+00) (5, 1.33087390365931090841e+00) (6, -3.91175526389634109492e+00) (7, 9.70501603598727413669e+00) (8, 1.77552941326320805615e+01) (9, 2.75414344273610156577e+00) (10, -3.09899147234467542411e-01) (11, 1.78645513091505208081e+01) (12, 1.78416133035243191785e+01) (13, 5.12773867561151774908e+01) (14, -6.96015023978816260719e-02) (15, 1.78491305742681660718e+01) (16, 9.57676567177309223666e+00) (17, 2.23908689383812475882e-01) (18, -2.31434379942915768869e-01) (19, 4.21485538000867947517e+01) (20, 1.77988464717090764111e+01) (21, 8.09934245487936443908e+00) (22, 4.79673033634931467173e-01) (23, 4.22695118936405762611e+01) (24, 3.71906082618046585075e-01) (0, 3.88139851554661963196e-01) (1, -4.78437241083465913949e-01) (2, -7.57700963847028563514e-01) (3, 4.07135448163195856619e-01) (4, 2.09881876866964939277e-01) (5, 1.98773113295116243826e+00) (6, -2.84722162569289736211e+01) (7, 7.62587017589052701405e-02) (8, 1.18961259713473960220e-01) (9, -2.29239233640775169620e-02) (10, -1.63532957525847982838e-01) (11, 2.18396884941447755324e+00) (12, 1.40452597281041757782e-01) (13, 2.14828991838575120710e+01) (14, -2.83615011242185799389e-01) (15, 3.16734683785978854420e-01) (16, 2.03883456345216013128e-01) (17, 8.51988922487902122782e+00) (18, 1.58640416692131969167e-01) (19, -5.77339913095880619132e-02) (20, 2.83013872965604040832e-01) (21, 4.40375836601935299885e-01) (22, 3.91574117416416567217e-01) (23, -1.04807729184857492677e-01) (24, 9.11520639633373319644e-02) (0, 1.41986900843735464051e+00) (1, 1.52074761140987479990e+00) (2, 5.58897041240808789553e+00) (3, -9.62583382977359236499e-01) (4, 2.24919540297396380879e+01) (5, 7.75972023950886602428e-01) (6, 3.42564394915018377574e+00) (7, 2.24845169793970782735e+01) (8, 2.24248424705274302937e+01) (9, 3.43681699774473492504e-01) (10, 3.43344155543957052501e+00) (11, 1.01029280431936285822e+02) (12, 2.25364495229132373311e+01) (13, 2.61934919766254665774e+01) (14, 6.12238756034947706475e-01) (15, 4.22463895830021485267e+01) (16, 1.21039330867871033348e+01) (17, 1.34290143496402158974e+00) (18, 4.28287665673142381451e+00) (19, 4.22843872460232361732e+01) (20, 2.25165586035855014302e+01) (21, 1.14980194231449295295e+00) (22, 3.96185708577001305386e-01) (23, 2.25008487861759860493e+01) (24, 1.16738030603984710432e+00) (0, 3.17861738220739598049e+00) (1, -6.65145636219383828980e-01) (2, -3.01552263128272546311e-01) (3, 1.07817850753870470015e+00) (4, 1.00115237733592751801e-01) (5, -4.12394792649466990220e-01) (6, 1.41824837688936100655e+00) (7, -1.33660056559806977861e-01) (8, 7.48725253848931682210e-02) (9, -8.87979187465142483227e-01) (10, 1.66122263640300554810e-01) (11, 9.95405871585074986108e-02) (12, 6.18147831170461070638e-02) (13, -9.54497719612119155386e+00) (14, -3.19887481887604918640e+00) (15, 2.42475436728141272025e-02) (16, 2.21197387179603216500e-01) (17, -4.89237823570283281160e-01) (18, -2.51289287880151723797e+00) (19, -1.86522244536184045316e-01) (20, 3.84781124894581938456e-01) (21, -2.06207879217680301043e-01) (22, 4.88162334069909553680e-02) (23, -1.24392379598758373582e+00) (24, 7.85578707964784128670e-02) (0, -3.49272480345455105244e-01) (1, 2.87134544610764796957e+00) (2, 5.78591738697129098767e+00) (3, -3.51941420528123771749e-01) (4, -3.09383861778461888292e-01) (5, -3.08616996293881895586e-01) (6, -9.63271745632190756758e-01) (7, -5.64738999355797396951e-02) (8, -2.89166923670256037493e-01) (9, 1.58650618556641156975e-02) (10, -4.97514186541129221908e-01) (11, -2.22332705612557829378e-01) (12, -1.91016927419388249376e-01) (13, 1.33111555447542079245e-01) (14, 3.86818324187329143360e-01) (15, -1.96943570728677214143e-01) (16, -2.97726381628000635882e-01) (17, 1.40959212672196847194e-02) (18, -6.16138100858813694827e-02) (19, -3.16467660939304507028e-01) (20, -3.73874638328931252484e-01) (21, 9.64811568374812522642e-01) (22, 4.47354227587299313473e-01) (23, -3.38719297330854984818e-01) (24, -2.42793500481331303575e-01) (0, -6.70570622022359619230e-01) (1, -7.08749457771148672069e-02) (2, 6.31640607115468710742e-02) (3, 7.26829589944239629062e-01) (4, -2.01355391357410384856e+00) (5, -7.19323247232000029250e-01) (6, 5.19536962635125498799e-01) (7, -4.26408903356657431605e-01) (8, -1.18945197676771008410e+00) (9, -5.94054549488088134979e+00) (10, 8.78032143739326476073e-01) (11, -6.34401427921901128748e-01) (12, -1.22974384119265400805e+00) (13, -9.90080499722079232505e-01) (14, 3.65163171841696998499e-01) (15, 1.30189942902598443375e-01) (16, -1.85353969771731352800e+00) (17, 3.35254057165681240704e-01) (18, 9.54822689467951901676e-01) (19, -1.11459960278001335432e+00) (20, -1.58863423519678059748e+00) (21, 7.99409181145008945757e-03) (22, 6.78392702337941855273e-02) (23, -3.03412197629109203767e-01) (24, -4.55149358514108648421e-02) (0, 4.37060726836866830780e+00) (1, 6.93166930568827832637e-01) (2, 5.23861410287279505305e-01) (3, -3.29105973336282914277e-02) (4, 2.23836774613864619710e+01) (5, 2.04501104188820796992e+01) (6, 3.39286664610538712950e+00) (7, 2.24861708294756610371e+01) (8, 4.21690744685636147437e+01) (9, 1.98181980260292101015e-01) (10, 2.48034845792143104903e-01) (11, 4.21073015558229073463e+01) (12, 4.21552349704013451515e+01) (13, 1.23059489735869433957e+02) (14, 8.21309814804568993907e-01) (15, 4.21724208670364006935e+01) (16, 9.90905901017280221765e+00) (17, 9.28420267029974297657e+01) (18, 1.05709317753872666934e+00) (19, 1.56149365343684092267e+01) (20, 1.92144832018857059097e+00) (21, 3.75510153203709118319e-01) (22, 3.27026139751855127180e-01) (23, 4.78854080160198325444e+00) (24, 2.06885039810185533682e+00) (0, -3.30441843015748348833e+00) (1, 1.54721325312505181282e-01) (2, -2.52361586421342813658e-02) (3, 7.93833484835392844126e-01) (4, -1.23307454976848895889e+00) (5, 3.88063395705744484943e+00) (6, 3.82351147233100541190e-01) (7, 4.09635141952339812410e-02) (8, -8.63971944146726289482e-01) (9, 1.44308824918390948833e-01) (10, 3.96769853059388943883e-01) (11, -1.65970234844720176959e-01) (12, -9.41720525913808947926e-01) (13, -4.02711834150028114010e+00) (14, 1.13434269367980067322e-01) (15, -6.03775279510269935468e-02) (16, -1.34805179778150896475e+00) (17, -1.35957553250892471119e+00) (18, 3.18936695785744572795e-01) (19, -3.44369519140828361792e-01) (20, -4.34458347418075607749e+00) (21, 1.46248243535887900713e+00) (22, 1.15217145851737323703e+00) (23, 8.31082315866411014404e-02) (24, -7.03694592966889742591e-02) (0, 1.95155056290972552802e+01) (1, 2.22064989254370193095e+00) (2, 9.62398230697049328342e+00) (3, 2.27896385129492340393e-01) (4, 2.24502368953235347249e+01) (5, 9.14042469106375765620e-01) (6, 1.78746393058717885083e+01) (7, 3.13659351997881641338e+00) (8, 4.22153167578087433753e+01) (9, 4.59508821032470149426e-01) (10, 1.01091937736044428675e+02) (11, 2.17235307677865741027e+01) (12, 4.21522604974613770423e+01) (13, 7.90453554476775543947e+00) (14, 2.22486700125431591246e+00) (15, 2.16871405973315916071e+01) (16, 2.24671151500351626851e+01) (17, 4.67945663759139152127e-01) (18, 5.17784581072059602036e-01) (19, 1.12748514325574706874e+01) (20, 3.19597460228956649075e+01) (21, 5.02808181682777188826e+00) (22, 8.41038547608975672887e-01) (23, 3.20619293946779677640e+01) (24, 3.27562594480437718758e+00) (0, 2.01023160531017930364e-01) (1, -2.04722219810134054008e-01) (2, -1.66242044017304468895e-01) (3, 3.96643478999909593341e+00) (4, 2.78756630903972013602e-01) (5, 2.08718053377808043791e+00) (6, 5.80520997129289839656e-01) (7, -1.47263208285996927138e-01) (8, 5.15628477212168978561e-01) (9, -6.68878769310781051693e-01) (10, 1.02004270007902131390e+00) (11, -2.49964221813246645354e+00) (12, 5.04037869747855471481e-01) (13, 2.84227856322868052685e-02) (14, -6.77126003422805822218e-01) (15, -5.24841807072583499405e+00) (16, 2.84356211609137876639e-01) (17, 1.44838931180180718883e+00) (18, 3.73927781938401149198e-01) (19, -2.23045482228073321807e+00) (20, 1.90850666775200517034e-01) (21, -1.98378123479586110367e-01) (22, 3.89481047343558928198e-01) (23, -1.41409758341286706518e+00) (24, 5.90617125507571394394e-01) (0, 1.53859894070644431796e-01) (1, -1.72259416807723220177e-01) (2, -2.81076204669661988689e-01) (3, -3.04857186972436466910e-01) (4, 3.83772151337065825505e-01) (5, 2.51087261809442008342e+00) (6, -3.01307327609984376693e+00) (7, 3.48907746294955023458e-01) (8, 3.72390167580046782536e-01) (9, 7.41296124528524891240e-01) (10, -2.25158966168497869376e+01) (11, -6.87939630499072030112e-01) (12, 3.09580655560889372868e-01) (13, -6.97259063915364740716e-01) (14, -1.31957204343745582165e-01) (15, -3.71712439408907524552e+00) (16, 3.18030224905409941716e-01) (17, 8.44117856758555662466e-01) (18, 1.59141031137017630037e+00) (19, -4.09120042533523298189e-01) (20, 1.51424731407184653964e-01) (21, 7.64713282255593207459e-01) (22, 3.17959965930380950017e-01) (23, -7.46668472601135779776e-01) (24, 3.14646700189509520573e-01) (0, 1.30462201796930283848e+01) (1, 7.01176794567983319162e-01) (2, 1.81690846075352467892e+01) (3, -2.23472829022313979053e+00) (4, 4.21759207102165802894e+01) (5, -6.40827581342456920055e+00) (6, 2.82151683501466932213e+00) (7, 7.54117450067680050729e-01) (8, 4.22357820423946961341e+01) (9, -6.41767409877283812047e-02) (10, 9.19277933593854901240e-01) (11, 8.28360639796321018835e-01) (12, 4.22839847954617127357e+01) (13, 1.95454855386958792351e+00) (14, 1.02361674823622447739e-03) (15, 7.83971712525166886110e+00) (16, 1.79074584875524678296e+01) (17, -8.90973533716895471635e-01) (18, -3.27349578426454845825e-01) (19, 7.92071524049319641847e+00) (20, 1.78453920815408864087e+01) (21, 8.69169895609034237616e-01) (22, 5.15417066314691862949e-01) (23, 7.83562886501826660890e+00) (24, 7.90600238690059353708e-01) (0, -1.08521565113783369227e+00) (1, 4.84052126941243859859e-02) (2, -2.68560150924166234077e-02) (3, 1.28337398281357661922e+00) (4, -3.32998897557130746350e-02) (5, 1.03095250294165308169e+00) (6, 5.98652224802486768174e-02) (7, 9.88678898553388196824e-01) (8, 2.23276817969373410355e-02) (9, 2.91417855726768315616e-01) (10, 2.69285678900832570193e+00) (11, 2.38787832166354158092e-01) (12, 7.91306549481443355365e-02) (13, 1.66861872839656949497e-01) (14, -1.70183581030728475758e-01) (15, 1.36116252233419365858e+00) (16, 2.36985344762929983631e-02) (17, 1.09538474724039258668e+00) (18, 1.10339972347949788478e+00) (19, 2.48785348221532087720e-01) (20, -2.62495278630574446765e+00) (21, 2.17865865933818569911e-01) (22, 1.16252902333124734369e-02) (23, -8.36542438142719030347e-02) (24, 2.96637391385595333704e-02) (0, 6.06637220530266210727e-02) (1, 1.63975302776122572324e-01) (2, 1.46478508313918592831e-01) (3, -2.94567390049958799381e-01) (4, 3.76953804494499056243e-01) (5, -2.07141028234679364095e-01) (6, 1.08630176960731317237e+00) (7, 6.68855908310590496768e-02) (8, 4.27676231028876308038e-01) (9, 1.55306383370487832707e+00) (10, 9.06598235957868703316e-01) (11, -1.00816248704190081220e+00) (12, 4.33211304607234004571e-01) (13, -1.09215937421293340925e+00) (14, 3.64853451202175993462e-01) (15, -1.50321333550199853768e+00) (16, 2.88026393951534120941e-01) (17, -2.67320325455011840177e+01) (18, 1.63991421463176745288e-01) (19, -1.79057327976407887338e-01) (20, 2.44488888889423910955e-01) (21, 6.12814721633444386972e-02) (22, 6.15132031349094332562e-01) (23, -1.28510813141561364148e+01) (24, -5.63966210486209346131e-02) (0, 3.06551299953496059203e-01) (1, -3.68900024940040760502e-01) (2, -3.86390653115278481788e-01) (3, 1.54278409389939064056e+00) (4, 2.94896533348381506556e-01) (5, -5.12550762687280041519e+01) (6, 2.19856384386762304661e-01) (7, 1.52288435337517902290e-01) (8, 3.39585284724193581241e-01) (9, 7.07862734383381764225e-01) (10, 1.46480703211904272898e+00) (11, -2.68895847596339843122e+00) (12, 2.73567418589550026553e-01) (13, -1.23130682414359267085e+01) (14, 3.94998471397305206398e-01) (15, -4.97563135484021423771e-01) (16, 1.59454353625937239602e-01) (17, -2.94460123965487485798e-01) (18, 8.15023225661394429276e-02) (19, 3.65293706182553301609e-01) (20, -6.86577188599325760610e-02) (21, 1.78426959092779890970e-01) (22, 8.33547299359150978271e-02) (23, 1.73060196339570621094e-01) (24, 6.81963726475271203586e-02) (0, -9.23983663676126720787e-01) (1, -1.39464493237507092260e-01) (2, -2.86403228691682110174e-01) (3, 3.32168858751296669496e+00) (4, -2.75667218459426377475e-01) (5, 3.43503046816282076037e+00) (6, -3.15768487970104105855e+00) (7, 4.83661928837355759025e-01) (8, -2.14121959015421969852e-01) (9, -4.76426295181378411936e-01) (10, -5.04763038147527168253e-02) (11, -6.66510398713359292211e-02) (12, -1.55550702318244138400e-01) (13, 2.97228235487272562931e-01) (14, -4.78779215836906135717e-01) (15, 2.51773649680764410874e+00) (16, -3.77005650945250458950e-01) (17, 6.75988302565895704532e+00) (18, -2.98758883676457753786e-01) (19, 8.26443495665984614873e-03) (20, -7.92966788261672661520e-01) (21, 4.29071103108193629971e-01) (22, -3.52183357848922934386e-02) (23, -3.04187995908263182632e-02) (24, -7.76764948525988513373e-02) (25, 2.14567723096854262588e-01) (26, 1.21948409456657844152e-01) (27, 8.05624906009907160165e-02) (28, 1.08236442882465797033e-01) (29, 2.28272538233358179838e+00) (30, 1.10578704256462531652e-01) (31, 2.16930914706463112696e-02) (32, 3.70604876465076699121e-02) (33, 8.08292809910053644540e-02) (34, 5.97771290725941165101e-02) (35, 6.94508573788168437346e-02) (36, 7.63317417389625940682e-02) (37, -8.30947954788699150175e-02) (38, -2.15421627344367427881e-01) (39, -4.87516549244913499628e-02) (40, 1.28990281004356804884e-01) (41, 2.04492818462773701116e-01) (42, -4.05509116608987607577e+00) (43, 2.02593091506409112013e-01) (44, 2.19500573437870416527e+00) (45, -2.51141843141838294606e-01) (46, 2.44615740927476482680e-01) (47, 3.49687520450824990137e-02) (48, -1.33263444534776702710e+01) (49, 7.66359824723476801278e-02) (50, 2.68321517891163090208e-02) (51, 8.38679034299129877450e-02) (52, -1.34038677816284956812e+00) (53, 2.37780869198873145987e-01) (54, 1.68746325749802056349e-01) (55, 3.75409871902856462356e+00) (56, 1.20618443567203956213e-01) (57, 7.16620270199055248161e-02) (58, 3.63340276567116149398e-01) (59, 2.09822181243347588575e-01) (60, -1.23676735804620001602e+01) (61, 2.05835298616513256986e-01) (62, 3.05883562014275334207e+01) (63, 7.20885988361115032097e-02) (64, -1.23064613462629530716e+01) (65, 5.32269883937115037553e-02) (66, -2.53280958973066105955e+00) (67, -1.33040490793920014312e+01) (68, 1.21034491438316779699e-01) (69, -1.50096691172002305592e+00) (70, -7.15674552035564914831e+00) (71, -9.48842755626737255348e-01) (72, 2.06854700259568452525e-01) (73, 1.21568183977055030431e-01) (25, 4.52775975024832466609e-01) (26, 1.21718376599778868585e-01) (27, 1.78056701742639267305e-01) (28, 1.92638262831201279024e-01) (29, -1.75448455159097083111e+00) (30, 7.98626837363145131166e-02) (31, 5.02415371169945904062e-02) (32, 1.45453870021333420137e-01) (33, 1.44697881959905350069e-01) (34, 7.99396900751492001103e-02) (35, 4.46015987929422541569e-01) (36, 9.44115069737336415345e-02) (37, -5.69639655959137236607e-01) (38, -4.92865091154726098210e-01) (39, -2.46340935565243857042e+00) (40, 9.14997381200692433412e-02) (41, -1.24851850479507971853e-02) (42, 7.96131792229131662886e-01) (43, 1.25943518899907791475e-01) (44, -8.39863016213822088929e-01) (45, -1.49665238593370730769e+00) (46, 2.16177229110829793868e+00) (47, 4.33176827659508892343e-02) (48, -5.37505578236143533033e-01) (49, 1.75723254405488693575e-01) (50, 1.45319476448526108125e-01) (51, 4.72828966607949444101e-02) (52, -3.72188239559172551196e+00) (53, -7.26052191107205757703e-01) (54, 1.48398995124330246309e-01) (55, 1.51954707481845296968e+00) (56, 1.52798577867974960665e-01) (57, 4.29252532353303142831e-02) (58, -2.55213708495371349727e+00) (59, 1.18244714759816862970e-01) (60, 1.46228935847860941344e+00) (61, 3.87499265682158589019e-01) (62, 1.55671250053628362764e+00) (63, 7.16493126978776234681e-02) (64, -3.84202051553398926664e-01) (65, 1.81335985385408127168e-01) (66, -7.53021571954930801773e-01) (67, 1.78449832739786629077e+00) (68, 1.02745838188161589533e-01) (69, -3.75802814229964177173e+00) (70, 8.58917578586266605711e-01) (71, 3.73703922284022327371e-01) (72, -2.26747821427413409623e+00) (73, 1.67114570461740219454e-01) (25, -9.28594996493965574302e+00) (26, -9.65691061670053974009e-02) (27, -5.73820175582636579636e-02) (28, -1.71632699852632353288e-01) (29, -7.59702549006632144035e-01) (30, -8.73949008042086278314e-02) (31, -2.31015684062708531732e-02) (32, -1.62316188400434324723e-01) (33, -6.73041345531214391107e-02) (34, -4.87004371339548533526e-02) (35, 3.51993028226431081684e-02) (36, -1.46097250466989347917e-01) (37, -3.00894074920561804820e-01) (38, -4.64147253470411844112e-02) (39, -5.08633587457577807101e-01) (40, -1.43962666576551268083e-01) (41, -1.07744030860816919493e+00) (42, -2.51896912316410093169e-01) (43, -6.34909125024546300287e-02) (44, -2.61541090453340119293e-01) (45, -5.25632233776841428785e-01) (46, -6.85854187317038732630e-01) (47, -1.47324536179946730119e-01) (48, 2.55722410317329051921e+00) (49, -2.00316481476472685319e-01) (50, -7.17708023244608556146e-02) (51, -8.08926748091448460931e-02) (52, -6.35611658997680017968e-01) (53, -1.50690622274874397313e-01) (54, -1.54155884122299025041e-01) (55, -1.36113731467957954635e+00) (56, -9.32967292124498859263e-02) (57, -4.54877914840448802081e-02) (58, -2.87565916324330872467e-01) (59, -5.96922339851130093202e-02) (60, -3.76389936382700296402e-01) (61, 7.11717112156301068282e-01) (62, 1.26966109002605387346e+00) (63, -7.77731390649546300287e-02) (64, -4.37787199801809231992e-02) (65, -1.21019847875284067285e-01) (66, -8.99050657323068741489e-02) (67, 2.10912409833106506696e+00) (68, -8.75464977676142369623e-02) (69, 4.55519366667598679665e-01) (70, 2.22589856888427162218e+00) (71, 4.29208913732793240214e-01) (72, -1.20713900825127895544e-01) (73, -1.36636316960500547868e-01) (25, -3.01415624884650179549e-01) (26, 2.04266882344485228851e-01) (27, 2.25871986552477782562e-01) (28, 1.72180699958802196914e-01) (29, -5.37211272258892069686e+00) (30, 2.11961134179831450775e-01) (31, 1.77101409837008449966e-01) (32, 1.95645919843913052016e-01) (33, 1.36305644019843130721e-01) (34, 1.67067742749453546081e-01) (35, 2.73502280965682853520e-01) (36, 1.87386951252222988540e-01) (37, -9.50649707042874048124e-02) (38, -9.46808222115071096425e-01) (39, -2.33192070964605813188e+00) (40, 1.74700482591391537124e-01) (41, -2.34968075966316725101e+00) (42, -7.88666139162465906765e+00) (43, 1.70286732568741772109e-01) (44, 2.54139675601721737319e-01) (45, -1.28646349358098941451e+01) (46, 1.01390044855034178184e+00) (47, 1.38357019826174737487e-01) (48, -8.06962466234865338777e-01) (49, 2.96465306385756466323e-01) (50, 2.56047724589110348159e-01) (51, 2.58701189264059994155e-01) (52, -2.02788200086082559537e-01) (53, 9.45107338000891861185e-01) (54, 2.47453897103072112396e-01) (55, -1.96966750481974139930e+00) (56, 1.55724457308054897720e-01) (57, 1.39975390239954949889e-01) (58, 1.46725117071867916518e-01) (59, 2.16159767314196532562e-01) (60, 2.53507641812910133883e-01) (61, 6.14674008841648467083e-01) (62, 1.90575716553634393335e+01) (63, 1.74310079618693325454e-01) (64, -8.94183943205676001753e+00) (65, 1.36838151916266470565e-01) (66, -1.79474026177597023590e+00) (67, -1.15648211086249216861e-01) (68, 1.22049285873175622497e-01) (69, -3.70527160029041935374e+00) (70, 1.41103102375977701444e-01) (71, 7.14985213279751841142e-02) (72, -4.21164018300483056212e-01) (73, 3.02467658027411434585e-01) (25, 1.89556964380372594547e+00) (26, -1.94238153171701864730e-02) (27, -2.73731117022199821331e-02) (28, 5.83675216066674926174e-02) (29, -5.96269195999407664033e+00) (30, 1.20496743463261585250e-01) (31, 4.30874387848214773777e-02) (32, -4.85098575127287170994e-02) (33, 6.74525435197191047809e-02) (34, 9.53396941649751472614e-02) (35, 1.01196110072930972601e-01) (36, -2.42203995538805803844e-02) (37, -2.89919991871548399232e+00) (38, -3.67239424940383329954e+00) (39, -3.75973997619187727537e+00) (40, 5.11725629794435310504e-02) (41, -9.90875539316450337779e-01) (42, -8.19447430443370206099e-02) (43, -1.36319686544104055892e-02) (44, -1.48954029380279351358e-01) (45, 1.35233033368693106313e-01) (46, -2.74378361074126553287e-02) (47, 1.80143277275399797677e-02) (48, 1.01121973794072061992e-01) (49, -1.84789475870295004378e-02) (50, 2.83182273733453386544e-02) (51, -1.86254669797583059798e-02) (52, -3.73882171120679274168e+00) (53, 3.94567383438774454962e-01) (54, 8.50499059188203621051e-02) (55, -2.24097024714919390576e+00) (56, 3.33775590288476614598e-02) (57, 1.31119557760937643920e-01) (58, 8.11519558656053352497e-02) (59, -4.27614440095586967328e-02) (60, -2.60751448770074924222e-02) (61, 9.35805736215912509213e-02) (62, 1.17037641067585740373e+00) (63, 2.07844535934762590645e-02) (64, -3.60608114993081319000e+00) (65, 2.66526351797418230294e-02) (66, -4.57104450081450841559e-02) (67, 7.35294689917994959139e-01) (68, 1.08338930748684864058e-01) (69, -5.52874152248422401357e+00) (70, -5.70229010082332066212e-01) (71, 5.14433754714333224545e-02) (72, -5.55930674119032741665e-01) (73, 4.11759103762940961713e-02) (25, 8.55692951728695860858e-01) (26, -1.07818039891881531367e-01) (27, -2.20854303625983822146e-01) (28, -1.11659887073201721797e-01) (29, -3.66786471645817080400e+00) (30, -2.62947986660165222705e-01) (31, -2.64645363030595270892e-01) (32, -1.30498560903234112063e-01) (33, -2.16079982755345928469e-01) (34, -1.46842579183740273852e-01) (35, 1.95415716841992687103e-01) (36, -3.73429482663965472966e-01) (37, -3.68187197561845103166e+00) (38, 3.73013936738540374805e+00) (39, -3.51247804130896845720e+00) (40, -9.16720952965446450600e-02) (41, -2.58100845442659032614e+00) (42, -2.42012004771992517149e+00) (43, -1.59036452708406106371e-01) (44, 5.64295165012476340749e-01) (45, 1.56934209538599461764e-01) (46, 3.38386784472437085469e-01) (47, -2.18365765003127682009e-01) (48, 4.70057893873002452523e-01) (49, -1.59218604502839700121e-01) (50, -2.44533362624806988039e-01) (51, -7.60628905274101235756e-02) (52, -1.94618462469644815105e-01) (53, 7.24547705915055462178e-01) (54, -1.76658931014699566164e-01) (55, 2.55498332827422025559e+00) (56, -2.11674979714316952029e-01) (57, -2.18839927402896511355e-01) (58, -3.98515819284699812641e-01) (59, -2.57697815833253407458e-01) (60, 1.07986036488166098346e-01) (61, -4.96133347350003195420e-02) (62, 7.26432540299153828300e+00) (63, -2.42374623952073681155e-01) (64, 2.65201222821208837388e+00) (65, -1.37911635277433053393e-01) (66, 4.55926929398820401929e-01) (67, 7.54283449914536663350e-01) (68, -1.10592099664372986445e-01) (69, -5.70373804967472786132e+00) (70, 8.17503138469415691070e-01) (71, 1.21161107369998230499e-01) (72, -4.41067769009852739259e+00) (73, -2.61577914295358149310e-01) (25, -1.11764251068348130502e+01) (26, 1.45219745211795300821e-03) (27, 5.23077669935722786021e-02) (28, -9.62442856831054321942e-02) (29, -1.03794599246322016839e+00) (30, 3.11225626068611441188e-02) (31, 1.01741674738426487318e-02) (32, 6.98271963196297057452e-02) (33, 2.06967267590065298610e-02) (34, -5.22866834504107994008e-02) (35, -1.85706716579894584584e-02) (36, -9.03251570267181030927e-02) (37, -3.43416005867428070220e-02) (38, 4.84887359375355675439e+00) (39, -1.37701193428144219588e+00) (40, 8.09131387072105773273e-02) (41, 5.12665815107357669689e+00) (42, -2.25557021593351447741e-01) (43, -2.74065014523963493276e-02) (44, 1.74861309925702403112e-02) (45, 2.06724226314089953860e+00) (46, -3.20253072085399215219e-01) (47, -2.00129997534255546499e-02) (48, 2.35454247524125248603e-01) (49, 5.51688048439522224498e-02) (50, -6.49680372876624695477e-02) (51, -8.01181745333175293622e-02) (52, -5.93811598892712488862e+00) (53, 9.42761482868110123334e-01) (54, 7.02459338503380187335e-02) (55, -9.31255757018070950970e-01) (56, -1.00347573737571679753e-01) (57, -2.42647704286078971792e-02) (58, -5.86333076806435996020e-02) (59, -9.25547656220893494305e-02) (60, -3.38993363470767539170e+00) (61, 6.54578549099895101726e-01) (62, 3.40198022433289182231e+00) (63, -9.76398986381988159833e-02) (64, -1.20613970910630613487e-01) (65, 7.34069022732277282062e-02) (66, -1.13713230856154812187e+00) (67, -5.50815718018004663037e-01) (68, -3.06341600222091170469e-02) (69, 2.66610825461299216776e-02) (70, -2.49978528805132071966e+00) (71, 1.25102079492695050789e+00) (72, -7.90047468293162830077e-02) (73, 3.63716307478447395396e-02) (25, 3.31931340870867863657e+00) (26, 1.07284473348879569321e-01) (27, 8.46301038754222051397e-02) (28, 1.25177743006968239525e-01) (29, -1.86842293896425371003e-01) (30, -1.80028284895184208236e-02) (31, 8.43836386692759649053e-02) (32, 3.03776283753154248413e-02) (33, 5.91608332517122494781e-03) (34, -1.83591003525021244369e-02) (35, 5.01080347391485159125e-02) (36, -1.98008845555546417194e-02) (37, 2.89803212417830580172e-01) (38, -1.52427704505243094557e-01) (39, -2.53812373790726875100e+00) (40, 1.40618549753451088646e-01) (41, -2.99607627496958039970e+00) (42, 7.87655827056116947249e-03) (43, 1.33439453412317970971e-01) (44, -3.69947090947120393878e+00) (45, -2.90862090477742141204e-01) (46, 5.09941820991275246433e-02) (47, 1.16766052414202417542e-01) (48, -2.59135772876950998267e-01) (49, -1.77391673433544803939e-02) (50, -9.83102424023175706924e-03) (51, 2.20572483730552201808e-02) (52, -9.85275581202637362743e-01) (53, 2.26780609981570874245e-01) (54, 7.17097986960169931150e-04) (55, 2.01209280597351991560e-01) (56, -1.64941008198025394760e-02) (57, 1.35675625969195107201e-01) (58, 4.46020756318730504653e-01) (59, 1.36357681919359902123e-01) (60, 1.80779477691055706634e-01) (61, -9.99718973865145876800e+00) (62, -2.20899201859987215357e+00) (63, 1.27099064183471121420e-02) (64, 3.81202863793059509856e-02) (65, 5.77303116214511330417e-02) (66, -2.11060357682916394095e-01) (67, -3.82000663851077959521e+00) (68, 1.68361665774607371926e-01) (69, 6.83631822571477559825e-02) (70, -1.89573739679021024962e-01) (71, 1.49398140366737464113e+00) (72, 5.29341178709319404305e-02) (73, 8.57078154576060707859e-02) (25, 1.37885282652683738291e-01) (26, -1.30200889576068845610e-01) (27, -1.94876831639400394103e-01) (28, -2.30724257100215823790e-01) (29, 5.57446032665468216294e-01) (30, -1.76437635589233310363e-01) (31, -2.20789377260795505187e-01) (32, -1.67917777467361362120e-01) (33, -1.26706336308113065581e-01) (34, -2.27629858107378013621e-01) (35, -7.26575035777370925594e-01) (36, -9.83152060395393184722e-02) (37, 3.77158365884219859421e-01) (38, -2.67205157291702288802e+00) (39, -1.96738879217471684946e-01) (40, -2.22535964716068179747e-01) (41, 1.61095115112100262245e+00) (42, 1.23934204246724299914e+00) (43, -1.58441272247424991271e-01) (44, -5.57034007802191921677e-01) (45, 5.32528234403682881881e-02) (46, -1.54695191487992600443e+00) (47, -1.55016143489471347472e-01) (48, 7.60924325399978784823e-01) (49, -1.55198459196678073546e-01) (50, -1.58980440962901981017e-01) (51, -1.49399903286090762755e-01) (52, -4.77224511708057352877e+00) (53, -2.50368575724001818372e+00) (54, -2.11762603986850650450e-01) (55, -1.03681357357237580175e+00) (56, -6.92103325015220455230e-02) (57, 5.75218468713428396355e-02) (58, -2.51768928738470965101e+00) (59, -6.51003240233573726714e-02) (60, -1.69531483211927547217e+00) (61, 1.19277820387958810588e-01) (62, 1.08569413823854632462e+00) (63, -1.91139236707082660338e-01) (64, 1.09461845857870265775e+00) (65, -3.52998940831336580071e-02) (66, 2.79461622202136605875e-01) (67, -1.42093408178724089908e+00) (68, -7.74250595456275753081e-02) (69, 2.96931727357415631285e-01) (70, -2.79725319307855624373e+00) (71, 2.37362486469253980426e-01) (72, -7.36996362343109723270e-02) (73, -1.23542253542533828070e-01) (25, -9.45579908109498323832e-01) (26, -2.18590739393917293798e-01) (27, -2.38552241796938152563e-01) (28, -2.52250879282442330709e-01) (29, -2.07513686596918281446e-02) (30, -2.49452664727655620824e-01) (31, -1.72615057999578630499e-01) (32, -2.62918762142149153860e-01) (33, -1.64018280083624040655e-01) (34, -9.97757680959378556729e-02) (35, -4.04072821507958201970e-01) (36, -1.40946603590932972860e-01) (37, 9.81805371189646038099e-03) (38, 4.01371440528309475493e-02) (39, -2.37691216327142379461e-01) (40, -8.73759903258954362393e-02) (41, -1.55031681325759590484e-01) (42, -2.34393480456641167819e+00) (43, -2.02800750011888714086e-01) (44, 5.33814916809646655693e-01) (45, -3.84275853530861777330e+00) (46, -1.63630317931722846225e+00) (47, -1.04065499479261525106e-01) (48, -8.15781628869474140231e-02) (49, -8.08752991504346208096e-02) (50, -1.46656281525579579306e-01) (51, -2.64859839553323928030e-01) (52, -2.49838499970341909595e-01) (53, -3.76114401575362578001e+00) (54, -2.05435103947607250463e-01) (55, 8.43160020667857246224e+00) (56, -1.30848235661474354696e-01) (57, -1.26504742276577930582e-01) (58, -6.13113905330290864804e-02) (59, -1.10669872934309132528e-01) (60, 1.63756897661996095317e-02) (61, 2.33936892968397036618e-01) (62, -1.54484804396031516482e-01) (63, -2.08429462487188549291e-01) (64, 1.13776386355189718103e-01) (65, -2.38202198619333477270e-01) (66, -3.43547960899771576138e-02) (67, -7.94976476113933294698e-01) (68, -3.99290403951349862077e-03) (69, 4.24034324085826863637e-01) (70, -3.60417092295711949390e+00) (71, -3.81986214019568448563e-02) (72, 7.08305329339505185260e-01) (73, -1.48591085547891743612e-01) (25, 1.01891584422374573138e-01) (26, -6.32954514582199784245e-02) (27, -1.42684829886679159783e-01) (28, -3.60691449601693095439e-02) (29, -1.27926955532850494812e+00) (30, -7.62157938439888965609e-02) (31, -4.45151827294869364970e-02) (32, 3.08412634770827351338e-02) (33, -6.86463839371247303012e-02) (34, -2.38702199418587661384e-02) (35, -1.31929416082264078236e-01) (36, 1.22870825886202059141e-03) (37, -2.09854925387022273053e-01) (38, 1.64586862135037659272e+00) (39, -1.88677786778721406913e-01) (40, -1.26119238789801135781e-01) (41, 1.08169081468837258164e+00) (42, 1.02569838274972457981e+00) (43, -1.37328659649614798210e-01) (44, -2.73356207223910518955e-01) (45, 1.26960607659394741908e+00) (46, 1.48340792645675512151e-01) (47, -7.45372301895661365512e-02) (48, 6.17871460754108259295e-01) (49, -1.14429271776719122117e-02) (50, -8.14355290491623889926e-02) (51, -1.19629134889368535233e-01) (52, 3.36733382240398837482e-01) (53, -2.48367074508445084824e-01) (54, -5.56966429543924446133e-03) (55, 3.45713095466721576088e-01) (56, -5.54971075613541683924e-02) (57, -1.21852738235452062732e-01) (58, -3.39114953172122568503e+00) (59, -1.45381954963926779412e-01) (60, 3.60497355632640348322e-01) (61, -6.30946492248598644892e+00) (62, 3.01733115415204089516e-01) (63, -9.44026685316605579379e-02) (64, 8.21218341891494341134e-01) (65, -1.21398774441008092118e-01) (66, 1.75606923508748291596e+00) (67, -1.75332013814257781092e-01) (68, -6.71477145512146961215e-02) (69, -3.99090170148676826045e+00) (70, 7.23262212619630306953e-01) (71, 2.78954765209433852569e-01) (72, -5.89955209692024951096e+00) (73, -1.18976233061079503250e-01) (25, -1.42174560611050426751e+00) (26, -8.89360118163180085604e-02) (27, -2.29515317405517116356e-01) (28, -2.26562734271342769432e-01) (29, -1.88432696949732858549e-01) (30, -1.31969112480933681297e-01) (31, -9.18213534606051179354e-02) (32, -1.52540195311362758446e-01) (33, -1.05413954283053876160e-01) (34, -6.92080962908816349488e-02) (35, 1.83013934564031366392e-01) (36, -1.81169299598762989500e-01) (37, 2.20370914908741527549e-01) (38, -2.82899674686656110723e+00) (39, 6.28937974269586641540e-01) (40, -1.72805789436156764793e-01) (41, -3.39553838891812631573e+00) (42, -7.63466993500828833286e-02) (43, -1.52886408890540614891e-01) (44, 4.17441892167862427243e-02) (45, -5.93056618836097992897e+00) (46, 2.54686609587581214154e-01) (47, -9.08899861825060578768e-02) (48, 6.05043885639169665147e-01) (49, -2.13439773346240535545e-01) (50, -2.11853410626704707909e-01) (51, -1.52095783079917445946e-01) (52, 4.24857950155636099332e-01) (53, 1.51990108759128328408e-01) (54, -2.37874637867267202385e-01) (55, -1.73893690887102092546e+00) (56, -2.04794521952922359276e-01) (57, -8.62334776175570499879e-02) (58, 2.00819223238509786400e-01) (59, -1.90780080432946697044e-01) (60, 1.10173425111540312926e+00) (61, -2.11711258142743496968e-01) (62, 3.18020686577709632559e+00) (63, -1.74908291126544490623e-01) (64, -2.83409201267228239018e+00) (65, -7.06551927578997623902e-02) (66, 2.99217598628782699421e+00) (67, 2.37529643385028510494e+00) (68, -1.52834701861197963524e-01) (69, -5.93814772036247529030e+00) (70, 7.09981179378376237032e-01) (71, 9.67823670279630454694e-01) (72, -2.13701410401003188966e+00) (73, -7.49479937804293644410e-02) (25, -1.71125750564889156369e-01) (26, 1.37786907094794575102e-01) (27, 1.63665723937827412016e-01) (28, 5.70219892340922572191e-04) (29, 3.89627860658209659861e-03) (30, 1.13772389429885198431e-01) (31, 2.77076148868382263202e-02) (32, 1.16197851437407781439e-01) (33, 2.25376798518302830926e-03) (34, 1.62199062246161762602e-01) (35, -2.00457912934195348065e-01) (36, 4.95629473336341684619e-03) (37, -6.14228219311506659639e-02) (38, -2.47816824811416203111e-01) (39, 2.88780583273535451649e-01) (40, 9.66599182666123407648e-02) (41, 2.33863269414586483208e+00) (42, -2.12286830598454878682e-02) (43, -2.19706697880446832905e-02) (44, 2.73263917362464692218e-01) (45, 1.33206206632326268346e-02) (46, -1.22614194890591055032e-01) (47, 9.80778606117547052667e-02) (48, -4.57629065305630522431e-01) (49, 8.68724183619797446498e-02) (50, -1.41796796142280058517e-02) (51, 1.74478375793278503436e-02) (52, 7.83980772920176316454e-01) (53, -4.72435394616057546813e+00) (54, 5.81155316413223890781e-02) (55, 1.18758124072459025911e+00) (56, -1.54612018286406933260e-02) (57, 2.36848974109471130389e-02) (58, -8.16632524442982621338e-01) (59, 1.28914759934723663348e-02) (60, 1.10013169433757962423e+00) (61, -3.06827433596107788105e+01) (62, 8.17489461465985378652e+00) (63, 8.29217480004608847866e-02) (64, 1.36993257349770924947e+00) (65, 5.83630697310745863438e-02) (66, -4.87096920321123894038e-01) (67, -2.25814393729456241999e+00) (68, 1.00440913320362819328e-02) (69, -3.02104505084804172976e-02) (70, -5.00802744356755979993e-01) (71, -1.20590881074996225664e+00) (72, -2.73836206421791371335e-02) (73, -8.33183066241142966657e-03) (25, 4.14218906866671149336e-02) (26, -9.14567164868470700023e-02) (27, -4.50448743790742775484e-02) (28, 9.55463968425634552206e-02) (29, -1.14108831111489103516e-01) (30, -1.80520541757699937158e-02) (31, 1.02012701540830624108e-02) (32, 4.80063878208044081397e-02) (33, 2.71782301574590642868e-02) (34, -8.35520751566049130199e-02) (35, -1.64926198852387101423e-01) (36, -8.69237758010980160472e-02) (37, -2.17706103800457784203e+00) (38, 9.67987094429437547327e-03) (39, -5.48704464723594576014e+00) (40, 5.16477696805837660499e-02) (41, 7.75193891261503620349e-01) (42, -3.11978436966981909073e-01) (43, 5.65266035705450087256e-02) (44, 7.50152931336314499067e-02) (45, 4.21447358162535401505e+00) (46, 5.05815322461330915682e-02) (47, 5.24277411609533339210e-02) (48, -1.58038889688869144123e+00) (49, -4.09044824332353493257e-02) (50, 9.02542941480520416464e-02) (51, -8.54201517790910275219e-02) (52, 4.67161304788621500883e-01) (53, 8.62940996873168136849e-02) (54, -3.79364654213544746919e-02) (55, -4.66184498856208329176e-02) (56, 2.06039197951200445114e-02) (57, -3.45144472808000465913e-02) (58, 2.10813857029351486849e-01) (59, 1.10290445595624935632e-02) (60, -2.28481976911234019312e+00) (61, -6.76658260581617287954e+00) (62, 3.04344580555860222404e-01) (63, 3.76529865175130873389e-02) (64, -5.40770471739948188628e-01) (65, -7.25643016189691097972e-02) (66, -3.16293601198131257846e+00) (67, 3.35027309127882544360e+00) (68, 1.38896651552250938871e-02) (69, 1.32930015863209599614e-01) (70, -5.20700714303904721447e+00) (71, -3.56249702835833303993e+00) (72, 8.38146674215561743315e-02) (73, -2.44766153186914414697e-02) (25, -8.85295738590072645025e+00) (26, 1.76244656617573436375e-01) (27, -1.15171418834412436077e-02) (28, 1.70999462778500255222e-01) (29, -9.21789037807157707327e-01) (30, 1.07843200738362024471e-01) (31, 2.49737119924341895161e-02) (32, 1.08684132869175623104e-01) (33, 1.17301772410801627422e-01) (34, 1.33684243137768471454e-01) (35, -1.48310678325026274599e-02) (36, 1.74244026715687450046e-01) (37, -1.13062940239494258421e-01) (38, 1.03997181125863535911e+00) (39, -3.81363446262149796695e+00) (40, 3.98403844486986888351e-02) (41, -1.01650948900965021338e+00) (42, -2.38384138988503302414e+00) (43, 9.46620582293784124106e-02) (44, 3.91972750379614376381e-01) (45, -3.03265214058184895407e+00) (46, -8.02928921850770138668e-02) (47, 1.10778684790066431209e-01) (48, -3.84692268442778573245e+00) (49, 5.63742994021689189377e-02) (50, 1.62955998133932945804e-02) (51, 1.70176561052731212254e-01) (52, -2.14368956912759367484e-01) (53, -9.51760646993912051705e-01) (54, 1.04029963786534021541e-01) (55, -5.59766540026759434889e-02) (56, 7.17877327155386768531e-02) (57, 9.90443109225546819419e-02) (58, 2.03300171712209820640e-01) (59, 6.15568934630667460861e-02) (60, -2.95520330093233529745e-02) (61, 2.37967046267985399277e-01) (62, -2.85573822303596491778e+00) (63, 1.68818931157520946140e-01) (64, -2.66476055627194341469e-01) (65, 5.77542065333639872970e-02) (66, -3.80456809696226105899e+00) (67, -7.93280460108045371026e-02) (68, 1.38369272525242531513e-01) (69, 9.33926286782568726430e-01) (70, 1.95431169110380248410e-01) (71, -9.25444582402036725055e-02) (72, 5.93421293177277611730e-02) (73, 1.30385513479641612644e-01) (25, -4.82908356058645189812e-03) (26, -6.48980610129627627503e-02) (27, 3.55056821729812267796e-03) (28, -1.01669801777342208582e-01) (29, 2.39038646975474566858e+00) (30, 2.36403435411659153254e-02) (31, -2.65258237776550137577e-02) (32, -1.00284403568247207361e-01) (33, 1.25866025629249502632e-02) (34, -1.07125943904856094080e-01) (35, -1.64149928076000400923e-01) (36, -5.91580467169506088454e-02) (37, -4.60777036793300620587e-01) (38, 2.43999793756876837136e+00) (39, -8.82821955019116266783e+00) (40, -1.20269401377180465418e-01) (41, -1.55234724846798699538e+00) (42, -1.10253566007816878880e+01) (43, 3.39801757957610729710e-03) (44, -1.58367841341083726014e-01) (45, -4.83101227019826584552e+00) (46, 1.22923326791035139594e-01) (47, -4.16978657302650435046e-02) (48, 4.03441791444642816611e-01) (49, -8.41105267462524536226e-02) (50, -8.45589101371559265230e-02) (51, 1.61507815065589817316e-02) (52, 6.45888998040568762526e-01) (53, 1.95575197963413383029e-01) (54, -3.48202571329864346561e-02) (55, -3.82926164878068409081e-01) (56, 6.03708863201347367688e-02) (57, 2.14426457824912937433e-02) (58, 1.85227279453032439571e-01) (59, -1.20137950783708938318e-01) (60, -6.60832762080809210659e-01) (61, -3.88725686596114936022e-02) (62, 3.16624982855843839502e+00) (63, 2.81304657402244515096e-02) (64, 4.56625089885004387114e-02) (65, -1.14677980599197492512e-02) (66, 9.65190560751007092799e-02) (67, 4.87600529359882461922e-01) (68, -7.63077885482636719683e-03) (69, -2.43870184562019387542e+00) (70, 5.79964978305708256379e-01) (71, -7.24073902248523415537e-01) (72, -1.09016828112374786208e+00) (73, 3.98400515260902282622e-02) (25, -7.10466536929165570768e+00) (26, 8.85740216463346830000e-02) (27, 1.34031861612155023256e-01) (28, -2.57751796752671638591e-02) (29, 1.29897167563534754464e+00) (30, 1.85608338206549386418e-02) (31, 1.12752575069208823416e-02) (32, 4.63915947969156458597e-03) (33, -4.41274199992875496013e-02) (34, -4.55437157661180216928e-02) (35, -1.41801328559459316470e-01) (36, 4.22132830708762049610e-02) (37, 3.12248434823325302090e-03) (38, 2.50016564821761955173e+00) (39, -1.52939475067231356320e+00) (40, 6.38402696340819031384e-02) (41, -3.57849372649776731325e-01) (42, 3.27490837059374051421e+00) (43, 2.56893332689543535396e-02) (44, 1.35203241893603387513e-01) (45, 3.11916734795670558267e-01) (46, 1.66454188623208543252e-01) (47, 4.48964010566016008541e-02) (48, 4.10234818280497959275e-02) (49, 7.34297703593511930098e-02) (50, -4.15734131247262397868e-02) (51, -2.43808407694558540446e-02) (52, -1.73358787264294933461e-01) (53, -1.57495602011728834668e+01) (54, 1.10307722875430141984e-01) (55, -1.28635671588302180623e+00) (56, 1.11829042026354824602e-01) (57, 4.79354779809256295597e-02) (58, 9.53923860722263428080e-01) (59, 1.35107606241061273256e-01) (60, -1.55301155891400064490e+01) (61, 1.51981236471682379374e-01) (62, 2.57743428945065744529e+00) (63, 1.18719234654261623918e-01) (64, -1.56917982083917202374e+01) (65, -1.05336349313062496193e-03) (66, 2.57495835795509542265e+00) (67, 2.08874678693073689839e-01) (68, 9.47929020612974515547e-02) (69, 5.39527563089670869623e-01) (70, 5.57010842851592136160e-03) (71, -1.16336276130687776842e+00) (72, -2.03372683507691345839e-02) (73, 1.03985458204104458391e-01) (25, 3.76696676826895504586e-01) (26, 1.07651458789844618746e-02) (27, 4.11326618601818363996e-02) (28, 7.83399747421283793036e-02) (29, 1.87188233267173864682e+00) (30, 9.98624728222085103480e-03) (31, 8.23493461801540161879e-04) (32, 1.12195629041387565095e-01) (33, 3.46591504027385990949e-02) (34, 4.98120220114727299543e-02) (35, 4.58520229408324181408e-02) (36, 1.59756356466239021752e-02) (37, -8.48786126277427666054e-01) (38, 3.03947077620053907054e-01) (39, -1.86682300417242963420e+00) (40, 5.28767065813083789183e-02) (41, -2.05964078062306521488e+00) (42, -3.64764114259299176979e+00) (43, 1.13566416661931998688e-01) (44, -2.01588859423832617024e-01) (45, -4.71653199445844162341e+00) (46, 2.18079208476538582984e-01) (47, 7.16325597574253153388e-02) (48, -1.07796589738287706961e-01) (49, 1.36065530936910650261e-01) (50, 1.54791990031738404404e-02) (51, 8.07261035938454732386e-03) (52, -3.52591182081517118263e+00) (53, 3.86480467706835595365e+00) (54, 5.80642329265613835187e-02) (55, 1.37390218600951321548e+01) (56, 3.70357499618722153106e-03) (57, 9.23128382970829081122e-02) (58, 2.27755268713215747178e-01) (59, 1.05527001779272086579e-01) (60, -5.42545712580533856517e-01) (61, 1.26792716028191976285e-01) (62, 5.65989314162140466635e+00) (63, 1.56190666716291448601e-01) (64, 2.77711849929102161383e+00) (65, 3.12941835422707748809e-03) (66, -4.29879272179117810637e-01) (67, -2.05299311380345933520e-01) (68, 8.64144222547550272528e-02) (69, -5.46727761414020463349e+00) (70, -1.54176573096244489136e+01) (71, -6.73726489761440477944e-02) (72, -5.46465233128636285187e+00) (73, -3.34246142606543349823e-03) (25, 1.91231897882572665637e+00) (26, -1.49183694914140352328e-01) (27, -2.38156479492940553744e-01) (28, -1.28669981554307533145e-01) (29, -1.72045362994397477152e+00) (30, -1.67993199721135744173e-01) (31, -1.69121009007253297884e-01) (32, -2.15105027601279863436e-01) (33, -1.36437129870214113314e-01) (34, -4.36975625945144163786e-01) (35, -1.13146268125402560401e+00) (36, -3.44933404042834859671e-02) (37, -2.62707717709345578427e+00) (38, -1.97518358345590228087e-01) (39, -1.60547910139287308695e+00) (40, -1.47518497601308473666e-01) (41, 1.44014265170395794335e+00) (42, -3.38605622340005218973e+00) (43, -1.46090817347325929720e-01) (44, -6.02271791100047915180e-01) (45, 1.95466928472115109017e+00) (46, -3.68850124236380949583e+00) (47, -1.83273990348138460238e-01) (48, 6.13114537647888258043e-01) (49, -2.09446207329787859042e-01) (50, -7.33761086018462765912e-02) (51, -2.22449538007535585482e-01) (52, -2.30328413772664580828e-01) (53, 9.97916403653100192450e-02) (54, -1.64105054631986324587e-01) (55, -4.81666585460560348064e-01) (56, -1.63810175553121273317e-01) (57, -4.19320790979579513524e-02) (58, -3.51315261642660303654e-01) (59, -2.37836357847013124545e-01) (60, -3.66004951652324095335e+00) (61, 1.03498497196908290086e+00) (62, -2.46431307193763604602e-01) (63, -2.18530048325814851840e-01) (64, -2.93779982558302864282e-02) (65, -1.16488103464402734111e-01) (66, -2.59488867215914487119e+00) (67, 3.46399744317464064469e-01) (68, -1.39399747763793546707e-01) (69, 1.21865759599168899108e+00) (70, 1.97210740445621257599e+00) (71, 1.15769153364011528895e-01) (72, -7.87100228447739413973e-01) (73, -1.01542313292779504130e-01) (25, -4.79993856486990791432e-02) (26, -4.58880522572343185761e-01) (27, -2.52679402106734007916e-01) (28, -4.67737396531646087983e-01) (29, 2.27478423365811865953e-01) (30, -4.60065589570348099091e-01) (31, -2.38678554171057405453e-01) (32, -2.22381772571535768490e-01) (33, -2.44010070436926546078e-01) (34, -7.23175159373785403361e-01) (35, -1.24431824663958945365e+00) (36, -1.53471322828264922222e-01) (37, 3.79503489054376696998e-01) (38, 7.43762602914767079199e+00) (39, 2.24300109176207129735e-01) (40, -4.55474839829747513154e-01) (41, 6.10264520838094903787e-01) (42, 5.67613146043951299902e-01) (43, -4.95430709146802261689e-01) (44, -7.78923865456912722927e-01) (45, -2.38672808415761172202e-03) (46, -1.38297934015695206389e-01) (47, -4.90590282999818161347e-01) (48, 5.75795451067425356761e-01) (49, -1.55313493782015560329e-01) (50, -2.29406016045542421322e-01) (51, -2.19642968946428956967e-01) (52, 5.73853805947196260462e-01) (53, -9.25592368590608316481e+00) (54, -1.94418491893740413845e-01) (55, 9.98396494330319295152e-01) (56, -1.51956381374331206402e-01) (57, -3.83301189503011041637e+00) (58, 4.66283440176233909824e+00) (59, -2.90831824862690546674e-01) (60, 4.54887743960100898732e-01) (61, -2.47538546198340120297e-01) (62, 9.91578822942374205063e-01) (63, -4.44328145407979324677e-01) (64, 4.15608351953594079564e-01) (65, -2.41422312432261171322e-01) (66, 7.91513102980214156013e-01) (67, -1.87995907053441335677e+00) (68, -2.41428727382155122738e-01) (69, 1.84243007336855474376e-01) (70, 7.98585382195745152600e-01) (71, 1.29513754785461093766e-01) (72, -1.16460377941850756756e+00) (73, -1.83387102657290218533e-01) (25, -1.43451170490132877688e+01) (26, -1.03698388864258903008e-01) (27, 2.45737608475884057591e-02) (28, -3.51844478444854058541e-02) (29, -1.19560161979515133801e-01) (30, 1.61465581460198126518e-02) (31, -4.54972509341040887154e-02) (32, -1.49832030017832851243e-01) (33, -5.84957275585929331596e-02) (34, -6.22542399959365028161e-02) (35, 3.71330125270899369383e-01) (36, -1.07913517584065546395e-01) (37, 4.37230459253507341977e-01) (38, 8.12684160538251432193e-01) (39, 4.81637951074847747712e-01) (40, -9.72439508931437907036e-02) (41, -2.92343850225291568279e+00) (42, -1.95230444281391823935e+00) (43, 2.18215207596661117662e-04) (44, 3.08876465673900590936e-01) (45, -2.15500213803299729420e+01) (46, 6.45042181335576558787e-01) (47, -1.38506409903029537034e-01) (48, -2.34917885419471228481e-01) (49, -1.13468591170111914729e-02) (50, -3.49344361619750298775e-02) (51, -1.10566036035279383065e-01) (52, 2.96098986907622174769e+00) (53, 6.20121930666994725101e-01) (54, -1.57123577971915340257e-01) (55, -8.83466630591514950899e-02) (56, -4.75850451783934938477e-02) (57, -1.03565153856734412652e-01) (58, 4.22914452237246718536e-01) (59, -1.25512694199542168549e-01) (60, 2.24853959308943140982e+00) (61, -7.47098625726059784036e-01) (62, 3.26334337457227086077e+00) (63, -4.31029238269722749649e-03) (64, -3.72692678314464043154e+00) (65, -1.18750558425644983651e-01) (66, -1.43285407287035759794e-01) (67, -2.61401899256248730630e-02) (68, -8.74034885363379615564e-02) (69, 6.99606756914533112202e-02) (70, -3.08132324571818938530e-01) (71, 3.93728500245626944487e-01) (72, 7.39533255221726526507e-01) (73, -6.71558726625243462838e-02) (25, -3.26895314983875895365e+00) (26, -8.96313336188014203598e-02) (27, -1.13954230814617460399e-01) (28, -7.71417689019854718735e-02) (29, -8.66109766567040202656e-04) (30, -2.29201835090334822553e-02) (31, 6.87681737845722701463e-02) (32, 5.14414462750737017105e-02) (33, 2.37706008857075483387e-02) (34, -7.81148639265852144653e-03) (35, 7.39872708598261208390e-02) (36, 2.39038172667805463856e-02) (37, 9.05877912142042496235e-01) (38, 9.92815027522882753708e-01) (39, 4.15980082198537193250e+00) (40, -5.59130829269106760515e-02) (41, -3.72093935008453797764e+01) (42, 1.43487923121706634211e-01) (43, -1.56452428991015433934e-02) (44, 1.71406466675677404687e+00) (45, -1.96687553072059595483e-01) (46, -4.12974033574347448861e-02) (47, 7.41486850684467818651e-02) (48, 3.85965218890459871304e-01) (49, -8.82441323692019635727e-02) (50, -5.59979897433932199968e-02) (51, -2.59553608242826631958e-03) (52, 3.26650227418053412665e-02) (53, 1.59016222378129762349e-01) (54, -8.69881283933337384751e-02) (55, 9.39012168750052444999e-02) (56, -3.87906205350573435320e-02) (57, -5.62086996132548227800e-02) (58, 1.95998814161410489509e-01) (59, 4.47835806067628690308e-03) (60, 2.86400530417675915074e-02) (61, -1.57115748754142110499e+01) (62, 6.57813529705590127605e+00) (63, -3.48266881400759592546e-02) (64, 1.36930940459090821903e-01) (65, -9.37434506112750226547e-02) (66, 9.01373362937763267233e-01) (67, 2.78591893469988416410e-01) (68, -9.61102616483386212876e-02) (69, 9.95449155666243840068e-02) (70, -1.62163906059468736487e+01) (71, -2.72113980527158641487e-03) (72, 1.92773652922359955975e-01) (73, -5.88685241286115729792e-03) (25, 8.22946695418786178244e-01) (26, -1.54486382457406368207e-01) (27, -2.49613808545262605421e-01) (28, -2.23254108878762513868e-01) (29, 5.26339299075307076592e-01) (30, -9.27250106660435641226e-02) (31, -1.91087478849084169141e-01) (32, -9.55141653148243868765e-02) (33, -1.74909794780404359571e-01) (34, -1.00641714486272140783e-01) (35, -7.05518127209537881939e-02) (36, -1.41487168225438414426e-01) (37, 1.79931718338272594870e-01) (38, 2.99912857364042384489e+00) (39, 2.73192040767454225048e+00) (40, -1.33091824206502257200e-01) (41, -4.93307696989845823055e+00) (42, -1.07130286610788508228e-01) (43, -2.48598033639580995313e-01) (44, -2.15016299423123236068e+00) (45, 1.64290563463721372983e+00) (46, -4.91403460978083828081e+00) (47, -1.53990635725648250531e-01) (48, -7.12876401556436611884e-01) (49, -2.46933216306359559766e-01) (50, -1.29690142425687132688e-01) (51, -1.83728398832471162549e-01) (52, -1.51479437718860143747e+00) (53, -2.16571478199316480584e+00) (54, -2.33655789944321901075e-01) (55, -2.74091093043477140867e+00) (56, -2.47328320595414430372e-01) (57, -1.27529980692059841108e-01) (58, 2.05124761532354593641e-01) (59, -2.09970230313927919141e-01) (60, -2.01092356117392068171e+00) (61, -1.18014757495123578934e+00) (62, 1.79905378868504328693e+00) (63, -6.17467035380910161946e-02) (64, 2.11606122767627524706e-01) (65, -1.80475043210179597608e-01) (66, -8.57904764891920135206e-01) (67, -5.01605140379738401180e+00) (68, -2.53690468019691417467e-01) (69, 1.74688370490456268413e+00) (70, -5.03272432795834134822e+00) (71, -8.09329210159466794217e-01) (72, 2.88257967370936940554e+00) (73, -9.73143894998143160757e-02) (25, 2.34023066516804156834e-01) (26, -2.94361215501536599426e-01) (27, -1.93500388830413039276e-01) (28, -3.38563073843230477600e-01) (29, 2.90127346291214172069e-01) (30, -2.54139688282717934875e-01) (31, -3.24884098439921720214e-01) (32, -2.56817613213767281799e-01) (33, -1.77255902856101210663e-01) (34, -1.33844541294931840270e-01) (35, -1.64945327568406563401e+00) (36, -1.50299493640174142151e-01) (37, -9.32224027300602831048e-01) (38, 2.25118327714411492479e+00) (39, -2.27623934983013476163e-01) (40, -3.30813225775470010070e-01) (41, 6.70622949817077040890e-01) (42, 1.68946271812118326006e-01) (43, -2.52728868692626229553e-01) (44, 1.45715729005675725949e-01) (45, 6.59210180261031508664e-01) (46, -3.81651338931589112491e+00) (47, -1.72867749303092177460e-01) (48, 2.48873170202971810694e-01) (49, -2.06030343144644911835e-01) (50, -1.52213428586234322815e-01) (51, -2.27102365761508162567e-01) (52, 7.88763778169212725899e-01) (53, 1.83048294063806349374e-01) (54, -2.61976633637656552978e-01) (55, 1.79220536867212221210e+00) (56, -2.43849907487143691132e-01) (57, -2.16896657317389662811e-01) (58, 1.68167733259539986523e-01) (59, -2.42971789508570845673e-01) (60, -3.58876637160448996866e+00) (61, 2.38653346780364428170e-01) (62, -1.85833776208324819024e+00) (63, -1.82571534484137709686e-01) (64, 6.17988152876632446109e-01) (65, -2.29182687073458846161e-01) (66, -2.13932097797180122145e-02) (67, 1.35213488128451597703e+00) (68, -1.74310775179023247361e+00) (69, 6.79194440462485671262e-01) (70, 1.58492333032468651899e-01) (71, -3.84969517957835183353e+00) (72, 3.12201597507188566283e-01) (73, -3.15709103315581662841e-01) (25, 2.69091184366405977713e+00) (26, -1.80127293549695088881e-01) (27, -2.90853760468149993845e-02) (28, -5.31456253754282667567e-02) (29, 2.17980920818653345350e+00) (30, -1.15986087106385332701e-01) (31, -1.19734779678502184508e-01) (32, -2.63260833250666542726e-02) (33, -2.03647264026322438735e-01) (34, -1.41777620424310080161e-01) (35, -1.12616196979562141478e-01) (36, -1.28452269779336603062e-01) (37, 8.86135652528835526809e-02) (38, -7.44708400447777196796e-02) (39, -5.86431861923328509589e-02) (40, -4.82492677199030592372e-02) (41, -7.43040229780554994932e+00) (42, 8.12658057637449138255e-01) (43, -5.40594688879633619716e-02) (44, -2.52402999969359331800e+00) (45, -1.02713835322443660658e+01) (46, -1.40636860987596895578e-01) (47, -7.75779119955683771348e-02) (48, 2.11611371925884278467e-01) (49, -1.52167555622973460494e-01) (50, -6.88886127697611733156e-02) (51, -1.38467856429734248458e-01) (52, -3.08238473565400727949e+00) (53, -2.39675459243463617742e-01) (54, -1.97357118807950093764e-01) (55, 4.46382728082653001955e-01) (56, -1.47541702471890467940e-01) (57, -1.69810083441653325576e-01) (58, 1.25043545465539050754e-02) (59, -1.93013005636849477309e-01) (60, -1.48315833984289519032e-02) (61, 1.80523467241331253552e-02) (62, 3.10892822841006211121e+00) (63, -1.94341362200894429701e-01) (64, -1.60062975230504528357e-02) (65, -1.74842111097956581789e-02) (66, 5.07462874635034744131e+00) (67, -2.44109240146513872816e+00) (68, -1.66947451167025640029e-01) (69, -3.41469131583137242014e-02) (70, 2.29433592224845561702e+00) (71, -1.29366465135536540254e-01) (72, -9.05987567235716495517e-02) (73, -2.25804082380915566164e-02) 
