FANN_FLO_2.1
num_layers=3
learning_rate=0.700000
connection_rate=1.000000
network_type=0
learning_momentum=0.000000
training_algorithm=2
train_error_function=1
train_stop_function=0
cascade_output_change_fraction=0.010000
quickprop_decay=-0.000100
quickprop_mu=1.750000
rprop_increase_factor=1.200000
rprop_decrease_factor=0.500000
rprop_delta_min=0.000000
rprop_delta_max=50.000000
rprop_delta_zero=0.100000
cascade_output_stagnation_epochs=12
cascade_candidate_change_fraction=0.010000
cascade_candidate_stagnation_epochs=12
cascade_max_out_epochs=150
cascade_min_out_epochs=50
cascade_max_cand_epochs=150
cascade_min_cand_epochs=50
cascade_num_candidate_groups=2
bit_fail_limit=3.49999999999999977796e-01
cascade_candidate_limit=1.00000000000000000000e+03
cascade_weight_multiplier=4.00000000000000022204e-01
cascade_activation_functions_count=10
cascade_activation_functions=3 5 7 8 10 11 14 15 16 17 
cascade_activation_steepnesses_count=4
cascade_activation_steepnesses=2.50000000000000000000e-01 5.00000000000000000000e-01 7.50000000000000000000e-01 1.00000000000000000000e+00 
layer_sizes=25 21 26 
scale_included=0
neurons (num_inputs, activation_function, activation_steepness)=(0, 0, 0.00000000000000000000e+00) (0, 0, 0.00000000000000000000e+00) (0, 0, 0.00000000000000000000e+00) (0, 0, 0.00000000000000000000e+00) (0, 0, 0.00000000000000000000e+00) (0, 0, 0.00000000000000000000e+00) (0, 0, 0.00000000000000000000e+00) (0, 0, 0.00000000000000000000e+00) (0, 0, 0.00000000000000000000e+00) (0, 0, 0.00000000000000000000e+00) (0, 0, 0.00000000000000000000e+00) (0, 0, 0.00000000000000000000e+00) (0, 0, 0.00000000000000000000e+00) (0, 0, 0.00000000000000000000e+00) (0, 0, 0.00000000000000000000e+00) (0, 0, 0.00000000000000000000e+00) (0, 0, 0.00000000000000000000e+00) (0, 0, 0.00000000000000000000e+00) (0, 0, 0.00000000000000000000e+00) (0, 0, 0.00000000000000000000e+00) (0, 0, 0.00000000000000000000e+00) (0, 0, 0.00000000000000000000e+00) (0, 0, 0.00000000000000000000e+00) (0, 0, 0.00000000000000000000e+00) (0, 0, 0.00000000000000000000e+00) (25, 3, 5.00000000000000000000e-01) (25, 3, 5.00000000000000000000e-01) (25, 3, 5.00000000000000000000e-01) (25, 3, 5.00000000000000000000e-01) (25, 3, 5.00000000000000000000e-01) (25, 3, 5.00000000000000000000e-01) (25, 3, 5.00000000000000000000e-01) (25, 3, 5.00000000000000000000e-01) (25, 3, 5.00000000000000000000e-01) (25, 3, 5.00000000000000000000e-01) (25, 3, 5.00000000000000000000e-01) (25, 3, 5.00000000000000000000e-01) (25, 3, 5.00000000000000000000e-01) (25, 3, 5.00000000000000000000e-01) (25, 3, 5.00000000000000000000e-01) (25, 3, 5.00000000000000000000e-01) (25, 3, 5.00000000000000000000e-01) (25, 3, 5.00000000000000000000e-01) (25, 3, 5.00000000000000000000e-01) (25, 3, 5.00000000000000000000e-01) (0, 3, 0.00000000000000000000e+00) (21, 3, 5.00000000000000000000e-01) (21, 3, 5.00000000000000000000e-01) (21, 3, 5.00000000000000000000e-01) (21, 3, 5.00000000000000000000e-01) (21, 3, 5.00000000000000000000e-01) (21, 3, 5.00000000000000000000e-01) (21, 3, 5.00000000000000000000e-01) (21, 3, 5.00000000000000000000e-01) (21, 3, 5.00000000000000000000e-01) (21, 3, 5.00000000000000000000e-01) (21, 3, 5.00000000000000000000e-01) (21, 3, 5.00000000000000000000e-01) (21, 3, 5.00000000000000000000e-01) (21, 3, 5.00000000000000000000e-01) (21, 3, 5.00000000000000000000e-01) (21, 3, 5.00000000000000000000e-01) (21, 3, 5.00000000000000000000e-01) (21, 3, 5.00000000000000000000e-01) (21, 3, 5.00000000000000000000e-01) (21, 3, 5.00000000000000000000e-01) (21, 3, 5.00000000000000000000e-01) (21, 3, 5.00000000000000000000e-01) (21, 3, 5.00000000000000000000e-01) (21, 3, 5.00000000000000000000e-01) (21, 3, 5.00000000000000000000e-01) (0, 3, 0.00000000000000000000e+00) 
connections (connected_to_neuron, weight)=(0, -2.31478311038407796874e-01) (1, 3.44051701090447192843e-01) (2, 7.71812982562603888681e-01) (3, 1.73196238093930622581e-02) (4, -1.56282823600546211251e-01) (5, -6.35830802441516240719e-01) (6, 1.27318277251299100117e-01) (7, 1.29361098950091457649e-01) (8, -6.37353622100509387138e-02) (9, 3.82150602961977847727e+00) (10, 1.27776967427958210166e+00) (11, 2.38469025169545911780e+00) (12, -2.00290061601177543649e-01) (13, -4.30601527648125148584e-01) (14, 3.20266443996164384966e-01) (15, 6.76938443846435644602e-01) (16, -1.97351627119556755074e-01) (17, -1.06116055547012844151e+00) (18, 1.72732765639814961345e-01) (19, -1.72192354195933761130e-01) (20, -1.86585440423816473210e-01) (21, -2.25409719830324117851e+00) (22, 2.67967228280218461300e-01) (23, -4.92813198374278194080e+00) (24, 1.02967889755255087580e-01) (0, 1.65233033878768909020e+00) (1, 1.71513347926545628441e-01) (2, 1.02716032099028617419e-01) (3, 1.62104824188410739927e-01) (4, -4.11345472069151521510e-02) (5, 3.93047649523014674955e+00) (6, 9.08690329302611066176e-01) (7, -9.97550109942885221415e+00) (8, -1.17243573527518477051e-01) (9, -1.53639208057311182909e-01) (10, 2.05991092787327051417e-01) (11, -4.25153691125879795720e+00) (12, -7.66211007644569813690e-02) (13, -9.36165545435088009008e-01) (14, 1.03388139608561552274e-01) (15, -3.51044936249095895775e+00) (16, 8.57586866651170176556e-02) (17, 5.38046496275459862346e-01) (18, 7.31453630271763244330e-01) (19, -1.00396464036914903062e+01) (20, 4.12865298762176757830e-01) (21, -1.73136123905774641507e+00) (22, 3.00776984260620383616e-01) (23, -1.09686626600848402546e+00) (24, -3.23700309972775462919e-02) (0, 3.58837794882350125114e-01) (1, 2.04991502716202561585e-01) (2, -2.73812629661235630574e-02) (3, -4.98784905384461879629e-02) (4, 4.50729031485610276420e-01) (5, 2.29047257850670510360e-01) (6, -9.94036393755497194036e+00) (7, -1.01711472177673761808e-01) (8, 4.69062585753493577201e-01) (9, 3.55828507141020766724e-01) (10, -1.57972932326873971576e+00) (11, -2.33568587528824977984e-01) (12, 4.18766219538741379935e-01) (13, 3.01597657226230358996e-02) (14, -1.41254795797895599252e-01) (15, -1.95911487334956091466e+00) (16, 1.56861627215015647652e-01) (17, 1.71094724477158788289e+00) (18, 6.65883612607732100486e-01) (19, -4.99943462776910652057e-01) (20, 4.03897514495098863829e-01) (21, -2.75236013080070673897e-01) (22, -9.80657323377215062177e-02) (23, -1.22341478044125429037e+00) (24, 9.49663337930486961547e-02) (0, 2.43965996199229012698e-01) (1, 3.53915485973156307420e-01) (2, 5.23535949732733763007e-01) (3, 5.20484438516338077108e-01) (4, -3.34511380097621102703e-01) (5, 4.41349196632019946662e+00) (6, -1.18174118914830272864e+00) (7, -2.02081294894486951375e-01) (8, -9.02899006320401625869e-02) (9, -1.69204813247314594937e-01) (10, 4.72676700787681869365e-01) (11, -1.92797125153569476330e-01) (12, -2.08289454312460015073e-01) (13, 1.87379368729097617319e+00) (14, -9.71334799311543845013e-02) (15, -1.34621937093402279512e-02) (16, -3.64147584340327401531e-01) (17, 1.65441506720780218131e+01) (18, 9.30963563972257296397e-02) (19, -1.37383228673228274808e-01) (20, 2.64895004921534338305e-01) (21, -4.48931865713375843896e-01) (22, -6.05475865810687019497e-01) (23, 5.30349623151607385552e-01) (24, -2.87123685488207408545e-02) (0, -4.09691445056141245740e-01) (1, 1.70742828735452212285e-01) (2, 5.91473426492785225861e-01) (3, 8.06795688995716325786e-02) (4, -3.03872628761878114945e-02) (5, -5.17107182631023065689e-01) (6, -3.70464546731729793549e-01) (7, -6.28327427069555466410e-02) (8, -3.76917493000622702559e-02) (9, -4.28358182641360885068e-01) (10, -5.73671730322300454930e-02) (11, -2.01172319137610644546e+00) (12, -1.82915404106676282581e-01) (13, 8.55288719883902787133e-02) (14, -2.88754129127679226574e-01) (15, -1.18824094744279729063e+00) (16, -1.41158490504180444969e-01) (17, -7.63475426079036401106e-01) (18, -2.95184670658225178919e-01) (19, -1.59426757880530345357e-01) (20, -4.39649600062311407545e-01) (21, 1.79530901818840660233e+00) (22, 2.33431401333606014514e-01) (23, -4.95385273215668053837e-01) (24, -2.90857915590194207600e-04) (0, 6.62296128907207570791e+00) (1, 1.68244920121771146526e+00) (2, 1.41752363594262398294e+00) (3, 1.07467484553253189716e+00) (4, 3.06983128691603956995e+00) (5, 1.32851092353189592643e+01) (6, 2.18076882015575179707e+01) (7, 6.32016729425567991285e+00) (8, 6.64399344363216481923e+00) (9, 7.27219446633732280461e-01) (10, 1.47380539378373587311e+00) (11, 3.12203502224150959421e+01) (12, 6.50622109212879262685e+00) (13, 1.89700880941953675674e+00) (14, 1.51086379394508316665e+01) (15, 3.10954422706130806375e+01) (16, 6.61035949625972829580e+00) (17, 3.62915293712793651792e+00) (18, 1.72640424088420463278e+00) (19, 3.12367237673465076853e+01) (20, 6.54805396386388860464e+00) (21, 1.59022150785826932307e+00) (22, 2.44678247910954871358e+00) (23, 3.11040194646779362131e+01) (24, 3.91086987707702693484e+00) (0, -5.98669851613243264588e-01) (1, 3.68528261324269856836e-01) (2, -8.88038362604328668226e-02) (3, 5.31876212088270849954e-01) (4, -2.81290697206988349333e-01) (5, 1.31508052954675935808e+00) (6, 5.99947288571995640538e-01) (7, -4.04794039262178495520e-02) (8, -6.82605955009864429073e-01) (9, 3.12506542752297666876e-01) (10, 1.14003032988596575414e+00) (11, -4.85479343663172802081e-01) (12, -7.74156662826942287836e-01) (13, 4.27290221261108105200e-01) (14, -7.49676684453181533391e-03) (15, 6.52765451989128941968e-01) (16, -2.79739867574276712681e-01) (17, 3.81909970927548370057e+00) (18, 3.44469214884224661510e-01) (19, -6.26271366732906314967e-02) (20, -2.34825193557294076285e+00) (21, 2.40433472686464799750e+00) (22, 1.06332421214259731368e-01) (23, 2.10383870352867052844e+00) (24, 1.48528531090519388957e-01) (0, 5.73545831535786643229e-01) (1, 2.99271881036169473678e-01) (2, 2.44000650398142254760e-01) (3, -5.63710588633572040607e-01) (4, 4.58653587536501816668e-01) (5, -3.01834609113928475921e+00) (6, -1.86439280918606065107e-01) (7, -2.31396230501509647670e-01) (8, 4.08666882352518967547e-01) (9, 5.60454580281704917155e-01) (10, 4.71275877293872380580e-01) (11, -1.90429847182847472586e-01) (12, 4.55644640760111740985e-01) (13, -3.77704245911595481999e+00) (14, -1.36831536219574334545e-01) (15, -4.63463735734090109819e-01) (16, 4.27153858976054123797e-01) (17, 2.54065337017584602641e-01) (18, -3.12574223652899774173e-01) (19, 5.68884991595220851357e-02) (20, 4.14347309307742051043e-01) (21, 4.37602191279579666450e-01) (22, 1.35976572167127218727e-01) (23, 3.69573932446331590573e-02) (24, 1.50543635089114363756e-01) (0, 8.29514922937203302844e-01) (1, 1.18510003532758256828e-02) (2, 8.72639908899967287059e-02) (3, 5.39370393685886018176e-01) (4, -6.92203080555167382659e-02) (5, 6.81986787700119112543e-01) (6, -5.24002648218002597957e+00) (7, 2.85178440449196990425e-01) (8, -1.58005466958250802290e-02) (9, -2.65384754044190041000e-02) (10, 5.86795870601764746333e-01) (11, 9.79647462928923545844e-02) (12, -1.01481396546002883285e-01) (13, 4.44422588557853881497e-01) (14, 4.90410173767509560694e-01) (15, -2.67990011110557446727e+00) (16, -6.73442368502410182440e-02) (17, -4.62300849012914838454e+00) (18, -1.24116531594919810022e-01) (19, -1.02100727322708140221e+00) (20, 8.70294177790826628538e-01) (21, -3.46559515544055563030e-01) (22, 7.59945101672444833785e-02) (23, -2.70784319640283266395e-01) (24, 1.92442430664298225196e-01) (0, 2.12544542934115732180e+00) (1, 2.92792197938375364785e+00) (2, 3.82098035076306841162e+00) (3, 1.33077083476935320583e+00) (4, 6.65148036816124044179e+00) (5, 2.73495335359314051260e+00) (6, 2.10309065506711734272e+00) (7, 6.34184901278395063429e+00) (8, 6.65146591403488240957e+00) (9, 5.98322310447315208748e-01) (10, 1.44201613566129172028e+00) (11, 3.11104533576730553079e+01) (12, 6.63105756678585134267e+00) (13, 3.12440185861054722238e+01) (14, 4.41033633778129185998e+00) (15, 3.12343055473033253122e+01) (16, 6.51628357433680616140e+00) (17, 3.75084316046825971824e+00) (18, 3.19052559235395305492e+00) (19, 3.12104365543786350656e+01) (20, 3.12863497192551909265e+00) (21, 3.70021330017185512418e+00) (22, 1.27291436027415483245e+00) (23, 3.10682768390837971140e+01) (24, 3.34371379080008956919e+00) (0, 6.56695350893739782094e+00) (1, 1.13354268526603019218e+00) (2, 1.39368928821770943216e+00) (3, 1.00402434994375244770e+00) (4, 6.55657160171274266958e+00) (5, 4.05648337730135111201e+00) (6, 4.14996546850156811104e+00) (7, 1.46343579173515330183e+01) (8, 6.65653601922992788076e+00) (9, 8.78412176040989645109e-01) (10, 2.04911116788424374491e+00) (11, 3.11047897727552715708e+01) (12, 6.60158658661846242666e+00) (13, 1.90566731539573730458e+00) (14, 7.18355304604687638914e+00) (15, 3.11091280856493774820e+01) (16, 6.54052316286567769765e+00) (17, 1.87142894119829295008e+00) (18, 1.65207122480904686768e+01) (19, 3.11083425001565281320e+01) (20, 6.59005966671709142446e+00) (21, 1.84568994018382426248e+00) (22, 1.34761655609734742889e+00) (23, 3.11846749649707142282e+01) (24, 3.28537076401304695139e+00) (0, 6.53137259074453435659e+00) (1, 7.32709657704479599971e-01) (2, 1.24703403536737811308e+00) (3, 1.02462325818461383875e+01) (4, 3.70600225973463359708e+00) (5, 1.92893435727833995053e+00) (6, 2.19283355574716338765e+01) (7, 1.45851281911561976301e+01) (8, 6.51189755537513814687e+00) (9, 5.54899298548320762947e-01) (10, 5.54044971487739612570e+00) (11, 3.11914589272204700876e+01) (12, 6.63184019067291341543e+00) (13, 3.11439019085232082773e+01) (14, 1.25507942673693029256e+00) (15, 3.10618916170064274240e+01) (16, 3.80108762729501981070e+00) (17, 1.55075856388919297579e+00) (18, 3.26074750819505565502e+00) (19, 3.11771649436417881418e+01) (20, 6.47730609663728795766e+00) (21, 1.10160608547992411310e+00) (22, 7.01637101885283720470e-01) (23, 3.11397716195646587778e+01) (24, 1.98674518813705924813e+00) (0, 6.52234056853655896902e+00) (1, 1.35601102057887890062e+00) (2, 3.60417008212817879809e+00) (3, 1.42283435892109877408e+00) (4, 6.61081621685031972646e+00) (5, 1.79744539649352041977e+00) (6, 3.32321004667581432201e+00) (7, 3.16652216574696909746e+00) (8, 6.49220824875835500478e+00) (9, 2.66329087405193032367e+00) (10, 1.42882171621768438996e+00) (11, 3.11427457423273388315e+01) (12, 6.51895589270595632314e+00) (13, 3.15045934727935206254e+00) (14, 2.35697247089870964842e+00) (15, 3.11830743865433994699e+01) (16, 6.64263111987117849111e+00) (17, 3.85290926497838936982e+00) (18, 3.21218388625682704784e+00) (19, 3.11103337795797649790e+01) (20, 1.39663960739544741330e+01) (21, 1.74800493839330117751e+00) (22, 8.74277464882639243626e-01) (23, 3.12109040932122532297e+01) (24, 3.25790767433833572397e+00) (0, 1.39618362590245119748e+01) (1, 1.65599384354692746868e+00) (2, 6.26762771153032982596e+00) (3, 1.45135889183526045620e+00) (4, 6.52429177873734555959e+00) (5, 3.54544099335254969674e+00) (6, 4.05450065304904327945e+00) (7, 3.11017245740953747202e+01) (8, 1.38096189975313059506e+01) (9, 9.84118647990805395231e-01) (10, 1.87270652956872418748e+00) (11, 3.11405058221284214426e+01) (12, 1.39382410451344362912e+01) (13, 3.10572364718977276254e+01) (14, 1.87560527332757187580e+00) (15, 3.10848030464116398264e+01) (16, 6.60519540944103322744e+00) (17, 2.01445471918326690641e+00) (18, 3.20102824368776195385e+00) (19, 3.11856732831660572458e+01) (20, 1.39024020090273729977e+01) (21, 1.65803206238097589065e+00) (22, 9.18253712193277449316e-01) (23, 3.12402275369826618601e+01) (24, 3.86627835337011394046e+00) (0, -1.04260363958066953893e-01) (1, 1.57566649052430718392e+00) (2, 1.76624800586515773304e+00) (3, -1.55223765897955523485e+00) (4, -9.34899541079003554289e-02) (5, -8.98310293927668812586e-01) (6, -1.10733257478816973784e-01) (7, -6.34109911279208460222e-01) (8, -1.78510481155516237406e-01) (9, 3.19906789849372208412e-01) (10, 1.33533441932291607745e-01) (11, -6.04718557366994091673e-01) (12, -4.13872279590382849412e-02) (13, 5.06570704193692655792e-01) (14, 4.79429553473374348016e-01) (15, -3.30194289206321545116e-01) (16, -8.16868770366455110299e-02) (17, 1.10625554516748136891e+00) (18, 3.16125580667737174356e-02) (19, -2.07730018732178861596e-01) (20, -1.62215845070070280309e-01) (21, -1.03978037037975437618e-01) (22, -3.47670334204294773084e-01) (23, -3.17955783725427099107e-01) (24, -1.58220661210354857085e-01) (0, 8.88023312762618033389e-01) (1, -3.10916110137214943276e-02) (2, -3.42956074507597019618e-01) (3, 1.60125172284454153626e+00) (4, -2.04752685638494136278e-01) (5, 9.29454448595391502508e-01) (6, 6.60106990990869668678e-01) (7, -8.94919761855650641724e-02) (8, -5.21908823868127424994e-01) (9, 1.26285123235643474970e+01) (10, 1.83942829294211157576e-01) (11, -3.91062149861151064911e-01) (12, -5.10331128259988386908e-01) (13, -3.14582001623921314604e+00) (14, 6.71576739818888102107e-01) (15, -1.44273497429291686078e-01) (16, -6.09664862476058042051e-02) (17, -3.13043049328460742942e+00) (18, -3.53013633761493084151e-01) (19, -3.96653651657554784382e-01) (20, 5.27692833302605190937e-01) (21, -3.68887743037092721843e-02) (22, 2.52446872380515163758e-01) (23, 1.26655501312695251137e+00) (24, 1.62795598897142526629e-02) (0, -1.47363098409972886893e-01) (1, 1.90231518552962108881e-02) (2, -1.38091387093183526336e-02) (3, 2.70260821085095970240e-01) (4, 1.41270475921551619258e-01) (5, -1.46736683203699591616e-01) (6, 7.24485355685955845217e-01) (7, 4.81188493615791357261e-01) (8, 6.34988509049540850171e-01) (9, -3.70482006145306774769e+00) (10, -1.06950075994852933370e+00) (11, 6.02483258465628668255e-01) (12, 6.54068119754916521558e-01) (13, -2.09082533494150013542e-01) (14, 4.45208092759581508524e-01) (15, -3.60881991555249415082e-02) (16, -1.17312822820130349677e-01) (17, -5.15694347368518157815e-01) (18, 8.78153010596096766927e-02) (19, -8.53456593073499136803e-02) (20, -3.44615194222471554752e-01) (21, -7.44505185925061763186e-02) (22, 1.21936126447923953720e+00) (23, -3.34188236777030533986e+00) (24, 2.65806779246159530228e-01) (0, 6.65377301611904226064e+00) (1, 7.25335843987006345657e-01) (2, 1.06100564934374319570e+00) (3, 1.37637022118811613858e+00) (4, 6.64815124013427816152e+00) (5, 1.24422849344471742050e+00) (6, 3.32188899913133495190e+00) (7, 1.45330972776244173872e+01) (8, 6.54889118560556493520e+00) (9, 1.32088523163099091917e+00) (10, 2.53489156390420200538e+00) (11, 3.11900265083972279001e+01) (12, 6.53911793121103368520e+00) (13, 6.17348089318688586502e+00) (14, 1.28294748447886575171e+00) (15, 3.11148789094153706003e+01) (16, 6.61020412185196004629e+00) (17, 2.83051277830308256611e+00) (18, 3.29192732372583263256e+00) (19, 3.11463700474563900400e+01) (20, 1.39011211871675364193e+01) (21, 1.29541541554403472070e+00) (22, 7.46698190814269024962e-01) (23, 3.12002539501849476267e+01) (24, 3.35145928027820083628e+00) (0, -5.85522378203032367594e+00) (1, 4.34647914434849291787e-01) (2, 1.89230242251290731170e-01) (3, 5.44540799983879719726e-01) (4, -3.32969676902126365814e-01) (5, -1.39732539169827169045e-01) (6, 1.80193962849226008149e-01) (7, -1.05347442199607843616e-01) (8, -1.53712511223784820125e+00) (9, 3.06863084101343802645e-02) (10, 1.78796898505778262267e-01) (11, 4.09106360355070197699e-01) (12, -1.51390148860446349666e+00) (13, -6.48823588222581681961e-01) (14, 1.23044564456275970499e-01) (15, 9.52016046434550067268e-01) (16, -5.00688278564586197739e-01) (17, -8.14917485305304278853e-01) (18, -1.70381374872608307158e-02) (19, 1.49892830435455565175e-01) (20, -9.75490729653658128484e+00) (21, 1.69980593456102835326e+00) (22, 6.66821716250781793001e-01) (23, -1.09596590811665639542e+00) (24, 8.40705538524083445528e-02) (0, 1.04936642525562340289e+00) (1, -6.55206284179607745255e-02) (2, -1.62859039678648148675e-01) (3, -7.33484471817433369978e-01) (4, -5.39161407499683040245e-02) (5, 1.23568623800085681808e+01) (6, 1.50878644218075952388e-01) (7, -4.06458905307706619414e-01) (8, 1.45973740270364499283e-01) (9, 1.55545511052753909764e-01) (10, -4.98629547666302963549e-01) (11, 1.34564456461448538060e-02) (12, 1.95468409111726526550e-01) (13, -1.53108775825856535668e+00) (14, 1.35476965466824555984e-01) (15, -6.60273840565852032647e-01) (16, -1.67192825872304301482e-01) (17, 1.56730900592390837156e-01) (18, 1.59896977066043499693e-01) (19, -2.26346110790769078358e-01) (20, 3.43441705839323818683e-01) (21, -2.18622222832666190939e-01) (22, -1.22403306031460372416e-02) (23, -4.04316001471315356053e-01) (24, 1.35962495993395132698e-01) (25, -1.17611953287380011091e+00) (26, -3.09356107866565075426e+01) (27, -8.15600996931932442635e-01) (28, -5.47312026507436266698e-01) (29, -8.74246137350998098192e-01) (30, 5.70238418639884225847e-01) (31, -2.73720847300779457356e+00) (32, -6.48985132926208407866e+00) (33, -4.32503623884636922980e-01) (34, 6.05023357779965520464e-01) (35, 5.77696349234566919328e-01) (36, 5.93844484300599328996e-01) (37, 6.18496674807057500445e-01) (38, 6.07394415647969365679e-01) (39, 7.14730884642587049882e-01) (40, -3.00263142377277603146e+00) (41, -2.69452825414619567823e-01) (42, 6.70270647616372339250e-01) (43, -7.69768136170102224014e+00) (44, -1.52617647228341812848e+01) (45, 5.62661949307904474260e-01) (25, 3.70057389514366286143e-01) (26, -1.35674148410922223995e+00) (27, -1.32410499373361183473e+01) (28, -1.31627058809364996250e+01) (29, -1.97417151636723198216e+00) (30, 2.75504440416814488923e-01) (31, -2.75708150142698782403e-01) (32, 4.23240584889856208406e+00) (33, -2.21745897921203116709e+01) (34, 2.60474712004186259584e-01) (35, 1.26872726132394392229e-01) (36, 1.53817095210076887346e-01) (37, 2.46085122575284587221e-01) (38, 2.59672120561124430971e-01) (39, 6.21370007583028183262e+00) (40, 2.72240523488470498314e-01) (41, -2.21131191419838408763e+01) (42, 1.71742674310924131609e-01) (43, -1.08525637574915667649e+00) (44, 4.85083951666478857545e-02) (45, 2.24971749236108409242e-01) (25, -9.30438915621419448954e-01) (26, -1.27799660001153299049e+01) (27, 1.03180588283579810494e+00) (28, -1.41258184578187262481e+00) (29, 7.61161092779734183011e+00) (30, -4.42401468027452449139e-01) (31, -1.78258896152536250312e+00) (32, 9.63951237405302641115e-01) (33, -7.15482542683567590558e-01) (34, -4.38698522020200709637e-01) (35, -4.46785546112875076030e-01) (36, -4.41082730162958125408e-01) (37, -5.51991946268896471750e-01) (38, -4.51398051548818679546e-01) (39, -1.20074942230283428224e-02) (40, -6.66819423415203971217e+00) (41, 7.23625612869074119615e-01) (42, -3.65499108303407760356e-01) (43, -4.62310735379700687986e-01) (44, -6.94037007560219354474e-01) (45, -5.50099804271082293283e-01) (25, 3.05757687090876362213e-01) (26, -3.09231091259220924883e+01) (27, 2.64776858486894361988e-01) (28, -7.43112825552368150284e+00) (29, 7.01707394431767883525e-01) (30, 1.51672236439293478538e-01) (31, -1.08777810734359636768e+01) (32, 3.23364010878767826895e+00) (33, -5.61141184328312836449e-01) (34, 2.06273674782818355888e-01) (35, 1.72677557733362768699e-01) (36, 1.46453998800820023307e-01) (37, 2.02699124630993404717e-01) (38, 3.07324111279553058296e-01) (39, -2.67414675069653495765e-01) (40, -1.94649144273196594845e+00) (41, 5.38107956249166741181e-01) (42, 1.97155251916950796653e-01) (43, -6.05843914266442462591e-01) (44, 8.08358888437939571148e-01) (45, 3.07712778266972186714e-01) (25, -4.69574293947164989049e+00) (26, -5.29156426570674076615e-01) (27, 1.77642565845616884346e+00) (28, -1.41601207742713586235e+00) (29, 4.81440542722740838499e-01) (30, -3.26326240034195746986e-01) (31, -9.13198734802724176873e-01) (32, 2.23243907109342476502e+00) (33, 3.69006141214220304003e-02) (34, -3.64492904574963416664e-01) (35, -2.23908182413670192590e-01) (36, -3.67946218879315223305e-01) (37, -2.09050934941860638849e-01) (38, -3.17812223167511787025e-01) (39, 1.51965561089528411465e+00) (40, 5.05438227631993863831e-01) (41, -1.30766851719725707426e+01) (42, -2.39183094532581880243e-01) (43, -5.34442532168052686359e+00) (44, 5.53980042800208405396e-01) (45, -1.92915689380261018426e-01) (25, 4.79771609642939578233e-01) (26, 6.85153142428310046874e-01) (27, 1.88305772076905642010e+00) (28, -3.27915037932115516206e-01) (29, -2.20132244616173489149e+00) (30, -8.14792697463474047126e-01) (31, -4.88336663287594952010e+00) (32, 1.98462341372922779215e+00) (33, 1.52056727964975535450e+00) (34, -7.38594737980804438848e-01) (35, -7.88619977567634355964e-01) (36, -6.49424743984184260626e-01) (37, -6.51347098086318965215e-01) (38, -7.75743377540550005378e-01) (39, 1.66066851128437220630e+00) (40, -4.02073139380048460989e-01) (41, -2.28441819589191341677e+00) (42, -7.62209755514106745977e-01) (43, -5.00267115574792065047e+00) (44, 1.80015531908334169842e+00) (45, -8.09661169681987535895e-01) (25, -3.09596847599545803575e+01) (26, -3.09206465376714554338e+01) (27, -4.82872119347199735273e+00) (28, -2.96210482058815438577e+00) (29, 4.13206058403008213986e+00) (30, 1.13934605964303936609e-01) (31, 1.90075096282531330605e-01) (32, 1.45133482663567892068e+00) (33, -6.64462197178108127105e+00) (34, 1.65454119094491897135e-01) (35, 1.97612478979707711924e-01) (36, -2.98995293369717224374e-05) (37, 1.29909142502428021082e-01) (38, 4.75815940879592558233e-02) (39, 1.65843275832770831180e+00) (40, 4.47548915259234764141e-03) (41, -4.47374749790994119536e-02) (42, 2.64249366008052488652e-02) (43, 4.00819666112299466398e-01) (44, -3.66607189958373913541e+00) (45, 7.84165110670336784615e-02) (25, 1.30162873022702108017e+00) (26, -1.30414477665234187498e+01) (27, -1.55567353350917592092e-01) (28, -1.64270045848073276140e+00) (29, -4.60797287031961921855e+00) (30, -1.06399115489629714215e-01) (31, -1.65720561636090990554e+00) (32, 1.95501045854614297070e+00) (33, -1.57367010143402707989e-01) (34, -1.11249793635515181744e-01) (35, -8.97059993615535386513e-03) (36, 2.41119523180446937438e-02) (37, -2.16548632251301123586e-02) (38, 3.63388468159160996085e-02) (39, -6.30124830399290658534e+00) (40, 1.94343077206283604275e-01) (41, -5.49479926978308430563e+00) (42, 7.56708194149456614408e-02) (43, -1.38644931156523365523e+00) (44, -6.90524067320135048753e-01) (45, 7.39533562792263621244e-02) (25, -4.53754118865419719953e+00) (26, 4.86812281880214747787e+00) (27, -1.29382416393772672336e+01) (28, -1.89010515021582881090e+00) (29, 2.06335229282241661153e+00) (30, -4.89967824662660200730e-01) (31, 1.07182610875819617213e+00) (32, -4.11898524518272968198e-01) (33, -3.86198097717455546274e+00) (34, -3.88856256152127988113e-01) (35, -3.93477799142335771254e-01) (36, -3.58737999344800717605e-01) (37, -4.44901497806047319106e-01) (38, -4.94137147212956928666e-01) (39, 1.43315148235808398347e+00) (40, 2.14068016225007573539e+00) (41, -5.32594734727517504780e+00) (42, -3.58044037366842038406e-01) (43, 1.21002834420149318895e+00) (44, -5.45807991396879632617e-01) (45, -4.47072012121414064101e-01) (25, 8.52139599788666046720e-01) (26, -1.23609849798708104629e+01) (27, -5.66069788433195952848e+00) (28, -2.83384765088671786160e+00) (29, 4.55638966103018572262e-01) (30, -2.98224154070981517517e-01) (31, 8.57037494555051293510e-02) (32, -4.70828100427485463086e+00) (33, -1.04235064043713698823e+00) (34, -3.63315086022981292846e-01) (35, -2.77438956455358043396e-01) (36, -3.57667396918901092651e-01) (37, -3.21167427257665172302e-01) (38, -2.71395447806485667908e-01) (39, -4.10058082673146273578e+00) (40, 1.02563992377492807506e+00) (41, 2.23411934222070529543e+00) (42, -4.11509986178048736694e-01) (43, 9.24646386931412500587e+00) (44, -5.86359269336887045654e+00) (45, -3.03906458572515025818e-01) (25, 2.08641166822348056442e+00) (26, 1.25766815663429341043e+01) (27, -1.56974700340795769726e+00) (28, -5.64729241630380229822e+01) (29, -1.12405410874874345240e+00) (30, -2.35004247812804739626e-01) (31, -1.02451708261162965918e+00) (32, 1.48978686208413729775e-01) (33, -1.59168088683653130566e+00) (34, -3.69310976652679201493e-01) (35, -2.49163740961131641161e-01) (36, -3.49957512406882997880e-01) (37, -3.59020175127563234696e-01) (38, -3.54608716158447023759e-01) (39, -1.71497957807333678559e+00) (40, 1.48819267705408070368e-01) (41, -2.71367370136290642080e-02) (42, -3.08467743633565660843e-01) (43, -1.15691738669068566736e+00) (44, 1.40276215132065407154e+00) (45, -3.38527144579467531571e-01) (25, -5.44352192533150702758e+00) (26, -9.11740821632435471944e-02) (27, 1.60481989824070137018e+00) (28, -1.12778446787447950150e+00) (29, 9.34935196670042434341e-01) (30, -6.59339114317688212985e-01) (31, -4.98243331503585018538e+00) (32, 1.89946729734457453453e+00) (33, 2.05671466026786164960e+00) (34, -5.10906218776497222933e-01) (35, -6.41569710562023387546e-01) (36, -5.60463934430870391878e-01) (37, -5.60488953480514862093e-01) (38, -6.37819103190693126315e-01) (39, -2.19119319360309505740e+00) (40, -1.06726618151717267402e+00) (41, 1.64730993839562334102e+00) (42, -5.01142724642547943148e-01) (43, -4.82495560091450848006e+00) (44, 3.52118188863246306397e+00) (45, -5.80198294708523132357e-01) (25, -2.86492496196562362876e-01) (26, -1.60968854730438626355e+00) (27, -7.37982868586615694539e+01) (28, 5.31464502566342034129e-01) (29, -4.64323282355842614777e+00) (30, 6.09697609936225237703e-01) (31, -1.44210919395691061773e+00) (32, -8.64524081091526319653e+00) (33, -2.75169583280322349594e+00) (34, 6.09909362887370409823e-01) (35, 6.68313219939696723237e-01) (36, 7.15374573861586982026e-01) (37, 6.17474496160972052827e-01) (38, 6.54091153090226584688e-01) (39, -1.05960288599899445927e+01) (40, 2.41358029647200877932e-01) (41, 2.92414602104417786776e+00) (42, 6.41336738859641486421e-01) (43, -5.27643465889518648027e+00) (44, 1.16519821503103124249e-01) (45, 6.75793871079909735933e-01) (25, 6.59440421650697494727e+00) (26, -7.25176572626102888819e+00) (27, 1.20326470295290932633e+00) (28, 1.30735771313219051315e+00) (29, -8.83206870141151512144e+00) (30, -1.37574470107798357832e-01) (31, -4.12737612502428685701e+00) (32, -8.65294348182800376890e+00) (33, 7.67765589695148298333e-01) (34, -1.15284717147593140929e-01) (35, -5.11315972259088757923e-02) (36, -1.54900810187105858473e-01) (37, -2.03956714337115013747e-01) (38, -1.27145363455061638502e-01) (39, -6.19999961001421162621e+00) (40, 5.61950378091047975104e-01) (41, -8.74405468734624946592e+00) (42, -2.26264780824427330641e-01) (43, -1.02527496260173247578e+01) (44, -1.71831901669285497247e-01) (45, -1.50653234188799584059e-01) (25, 1.54416521954760987967e+00) (26, -1.28692349988735266209e+01) (27, -6.04122835920439027468e-01) (28, -7.75483097863706305475e+00) (29, 2.00077773887227694516e-01) (30, -1.15228867326126777071e-01) (31, 1.77616152454080716838e-01) (32, 1.06571774789624673652e+00) (33, -1.30593566180754656614e+01) (34, -5.88912872413260221616e-02) (35, -9.25248434582812140370e-02) (36, -1.03375708852158243456e-01) (37, -1.37591337952957804003e-01) (38, -3.46521792749030083103e-02) (39, -2.87313098569858205167e-01) (40, -7.35687746564325451004e+00) (41, 1.77150831070002889867e+00) (42, -9.55757966080767462635e-02) (43, 1.91842668314102215987e+00) (44, -3.58340685951797632836e-01) (45, -1.02837348524676019945e-01) (25, 9.25638621539335848531e-02) (26, -3.14390445886459080072e+00) (27, 1.64205900025692708155e+00) (28, -1.19972131909617951706e+00) (29, -3.85671819400002968692e+00) (30, -3.75765989306031222839e-01) (31, -5.46733105038363209616e+00) (32, -1.52016675307904969294e+00) (33, 1.75528336589552358404e+00) (34, -3.85327241154967303771e-01) (35, -4.18543952288685794372e-01) (36, -3.11875032963810805420e-01) (37, -4.30720927896557803649e-01) (38, -2.56290334048329127015e-01) (39, 2.61276593310453775221e-01) (40, -5.58186460142094365011e+00) (41, 3.07428740705528857902e+00) (42, -3.60794137003479953307e-01) (43, -5.49606364821154347311e+00) (44, -3.17287040160070810124e-01) (45, -3.00446796002446059326e-01) (25, -4.30816946208129828572e-03) (26, -1.29307499181235385777e+01) (27, -1.72794328310165501428e-01) (28, -3.04240512542841923249e+00) (29, 2.63288807059558527257e+00) (30, 5.18943691516566343869e-02) (31, 8.55451335025264714140e-01) (32, -7.15158521529289537000e+00) (33, -7.60000016762551844351e+00) (34, 1.96529241826598671805e-01) (35, 1.84879812028472395591e-01) (36, 5.09319553042101927365e-02) (37, 1.63288774516646834067e-01) (38, 1.33607360150878401450e-01) (39, 5.56216203447661872161e-01) (40, -1.90114833041694097915e+01) (41, 2.23301904299596243320e+00) (42, 6.73390874529528615788e-02) (43, 2.50391064454148493112e+00) (44, -6.83239355631790079570e+00) (45, 9.36720134580779073552e-02) (25, -5.48700414303440897612e+00) (26, -3.08342266833583202867e+01) (27, 8.62423972909518887775e-01) (28, 8.45912926565297262904e-01) (29, -1.11736368052336176859e+00) (30, -7.99987117263328967320e-02) (31, -1.09254652660934343800e+01) (32, -1.35759855191444102351e-03) (33, 1.31696297114259830430e+00) (34, -6.03539260539066729772e-02) (35, -1.15905316981327524001e-02) (36, -7.78055960747253833043e-02) (37, 2.29616589221833975951e-03) (38, 3.93400055852877739149e-02) (39, 7.63924010165581202081e-01) (40, 3.01733926967263643704e-02) (41, -1.84892636348828964810e-01) (42, -3.51393841829418865363e-03) (43, -3.09370278796354618578e+01) (44, -5.01163908695949400496e-01) (45, -5.69016101273548541295e-02) (25, 5.33164306425091494290e-01) (26, -5.07401932552437973101e+00) (27, 1.59436353786426461554e-02) (28, -5.51046159255885115158e+00) (29, 1.80012703264306428430e+00) (30, -5.18883766987418559857e-01) (31, 3.95886604809491837731e-01) (32, 2.68207544842593292866e-01) (33, 5.35989971684050492406e-03) (34, -4.23692839601134518812e-01) (35, -4.95406495788192013929e-01) (36, -4.62283121802901486586e-01) (37, -3.79701743283366421888e-01) (38, -4.60808234670256833265e-01) (39, 9.64538553805642573380e-01) (40, 1.35267515686857753288e+00) (41, -2.43610642541733063426e-01) (42, -3.50327754774188260267e-01) (43, 1.21628397207750360565e+00) (44, -5.90438662125406410475e-01) (45, -4.38453244426345090101e-01) (25, 9.74814451941972248683e-01) (26, 4.58103616598342444632e+00) (27, -1.83292205076848246925e+00) (28, -7.68785187652066270836e-01) (29, 8.27249221548512658764e-01) (30, -7.67131137467369272898e-01) (31, 9.79482487492380204941e-01) (32, -1.78058595385087325980e+00) (33, -2.61574110500947643043e-01) (34, -8.53681056565984919260e-01) (35, -8.98563007629856302927e-01) (36, -7.83522437132343485544e-01) (37, -8.91777756429657175730e-01) (38, -8.64272213346704676340e-01) (39, 7.88315161807842779140e-01) (40, 4.16188868710650472504e-01) (41, 1.06103901223239716067e+00) (42, -9.03825956202491953562e-01) (43, 1.17394639011953771934e+00) (44, 2.59522744790631032519e-01) (45, -8.56772689885839655588e-01) (25, -2.37896048662983611299e-01) (26, -1.29161051552999595060e+01) (27, 1.93154600142582427713e-01) (28, -6.70981224616018145923e+00) (29, -4.11476917900945482476e-01) (30, 8.15070300833340005697e-02) (31, -3.20126917564119983783e-01) (32, -1.27278952156695157605e-01) (33, -1.76292453648429742197e-01) (34, -2.34383985861187638111e-02) (35, 7.50881015793437717187e-02) (36, 1.34155544592534980985e-01) (37, 4.33731406466120808507e-02) (38, 1.39867159678136815382e-01) (39, -1.29902674373496154203e+01) (40, -4.11465380691732995899e-01) (41, 4.17066788633491292160e+00) (42, 2.39185347692126432095e-02) (43, -2.01185336183261870291e-01) (44, -6.55209327938144209247e-02) (45, 3.03301468030566373502e-02) (25, -1.09349045327831739804e+00) (26, -2.14472553961264367217e+00) (27, 3.49942143382235504312e-01) (28, 6.85774734497687266099e+00) (29, -1.85478871453821536619e+00) (30, -2.66822229536502864011e-01) (31, -9.39665998306979943777e-01) (32, 4.00130405983000514425e+00) (33, -3.09229968829253998308e+01) (34, -2.52863622667520659970e-01) (35, -1.72739926191299492109e-01) (36, -2.58400733979671615170e-01) (37, -1.23010146828621019788e-01) (38, -2.43637855561702781904e-01) (39, -4.44686130629152742699e+00) (40, -4.27823890639649384582e+00) (41, -5.47581007161793564819e+00) (42, -1.31625774713485826917e-01) (43, -7.77382797178221807144e+00) (44, -2.43940970518077504536e+00) (45, -2.07858684869735826917e-01) (25, -1.29652482371533466221e+01) (26, -1.29539993654692722203e+01) (27, -2.28223789074000160682e+00) (28, 3.04561021056573233423e+00) (29, 2.26862998715040120601e-01) (30, -4.76434828773028562487e-01) (31, 6.29121362995967992049e+00) (32, -3.08571890225807514696e+01) (33, -1.29703547160828662754e+01) (34, -3.83724337503201506916e-01) (35, -4.90096202179677087329e-01) (36, -4.14098238631970538837e-01) (37, -4.64012796118743131579e-01) (38, -5.01711836144215661548e-01) (39, -1.96781542844005036264e-01) (40, -8.42053579942252716783e-01) (41, -6.58842223376872304641e+00) (42, -4.83447836771494998676e-01) (43, 1.26157437497691349293e+00) (44, 1.12771841528846250569e+00) (45, -3.65589162394291899982e-01) (25, 1.59267726920880758890e+00) (26, -6.99384482297260579031e-01) (27, -1.86477600421318424895e-02) (28, -1.60331166924429030507e-01) (29, -3.88871405516713375405e+00) (30, -7.14797320168017780162e-01) (31, 1.29172013439684874037e+00) (32, -1.30983745645988562956e+01) (33, 2.66064560985188069964e+00) (34, -8.60069508056640286142e-01) (35, -8.07801837425231594736e-01) (36, -8.35874388318061489755e-01) (37, -7.88783463041782040293e-01) (38, -8.22135696511268276865e-01) (39, -1.31094533407568070160e+00) (40, 1.57425031446256125101e+00) (41, 9.35894021216717386658e-01) (42, -8.08075281183719296152e-01) (43, 4.02660501911219004256e+00) (44, 3.62252569383465783392e-01) (45, -7.77174333434104580576e-01) (25, -5.58778343837341839873e+00) (26, -1.06702719986000382768e+00) (27, -4.25034754632347910874e-01) (28, 4.68854272246398195989e-01) (29, 2.59053128970016954824e+00) (30, -2.27841963220457077721e-01) (31, 2.57193080117777250759e-01) (32, -9.26882833956429230682e-01) (33, 2.48715454935892132937e+00) (34, -2.72565518666128492331e-01) (35, -2.80689952123979902243e-01) (36, -1.67146881271223124443e-01) (37, -2.70196800280432081198e-01) (38, -2.97111329782823896384e-01) (39, 7.69830468892375302525e-02) (40, -1.43226959481324606083e-01) (41, -1.80144209899829466082e+00) (42, -2.51910318780759923118e-01) (43, -1.12780568119519308823e+00) (44, -9.29847755973972489585e+00) (45, -1.74351294685224589287e-01) 
